tree
version=v4
num_class=3
num_tree_per_iteration=3
label_index=0
max_feature_idx=8
objective=multiclass num_class:3
feature_names=Column_0 Column_1 Column_2 Column_3 Column_4 Column_5 Column_6 Column_7 Column_8
feature_infos=[-0.78925474679379337:1.0431814769007572] [-1.1166666666666667:6.6166666666666663] [-1.0112359550561798:1.4285714285714286] [-2:1.6749999999999972] [-0.9662676822633296:3.3862894450489658] [-1.7452853236224666:3.4326690722209618] [-1.1312532535309887:6.8907410794504278] [-0.86382978723404258:1.0851063829787233] [-1.1371455137145514:0.96792189679218965]
tree_sizes=3155 2796 862 3411 3422 3487 3410 3460 3476 3403 3447 3486 3394 3440 3479 3393 3444 3484 3404 3405 3478 3405 3447 3463 3399 3435 3470 3415 3446 3477 3402 3445 3473 3413 3454 3478 3413 3439 3495 3388 3449 3478 3419 3415 3478 3381 3396 3468 3412 3434 3486 3403 3438 3472 3396 3433 3463 3407 3426 3496 3396 3419 3487 3412 3442 3486 3397 3400 3478 3407 3443 3493 3397 3460 3476 3407 3412 3480 3397 3430 3492 3414 3442 3491 3391 3444 3496 3411 3435 3479 3405 3452 3504 3400 3450 3490 3423 3423 3493 3416 3438 3488 3404 3462 3490 3410 3461 3506 3398 3451 3493 3400 3454 3488 3398 3425 3487 3407 3431 3496 3408 3455 3502 3409 3441 3428 3434 3447 3477 3395 3449 3477 3401 3461 3502 3409 3453 3473 3418 3419 3507 3419 3425 3497 3424 3462 3505 3430 3438 3493 3410 3464 3501 3408 3455 3504 3402 3450 3507 3408 3439 3514 3416 3461 3490 3401 3448 3523 3397 3466 3509 3399 3448 3519 3417 3435 3513 3414 3453 3500 3419 3471 3528 3421 3485 3520 3422 3445 3521 3456 3431 3533 3416 3465 3527 3428 3466 3520 3427 3466 3517 3441 3443 3514 3438 3458 3529 3422 3458 3534 3444 3467 3516 3437 3446 3460 3419 3480 3520 3438 3445 3527 3435 3468 3520 3443 3480 3515 3442 3450 3542 3431 3451 3536 3438 3500 3543 3440 3484 3543 3456 3475 3522 3433 3450 3524 3439 3496 3539 3465 3444 3537 3445 3497 3554 3450 3477 3549 3433 3485 3534 3436 3504 3524 3434 3497 3536 3460 3485 3534 3457 3489 3541 3460 3467 3550 3461 3491 3486 3458 3507 3561 3453 3479 3557 3475 3533 3524 3467 3489 3546 3472 3480 3529 3458 3524 3548 3474 3492 3531

Tree=0
num_leaves=29
num_cat=0
split_feature=8 1 5 5 8 0 1 1 6 5 5 0 8 1 0 5 2 8 2 5 5 0 0 2 0 0 0 1
split_gain=906.574 204.233 28.9648 24.0189 21.4585 20.179 17.9004 14.3497 11.1195 9.45264 5.49096 3.55544 3.28644 3.14677 2.88221 2.664 1.97412 1.00146 1.08463 0.833745 0.677896 0.219905 0.311544 0.0790879 1.13687e-13 1.13687e-13 1.42109e-14 1.42109e-14
threshold=0.21199442119944215 0.99166666666666681 -1.2149326416049164 1.358894458172953 0.31613203161320319 0.4079150038494867 -1.0000000180025095e-35 0.025000000000000005 -1.0380512414368477 1.1743817951621749 0.98947322871679744 0.4079150038494867 -0.59507205950720576 0.59166666666666679 0.029800452591930326 -0.98044874899776191 0.89245585874799371 0.12273361227336124 0.6356340288924559 1.358894458172953 1.1743817951621749 0.30175234934109568 0.35344392359283322 -0.012841091492776886 -0.13357495518329246 0.79928666721479125 0.23518765363495064 1.791666666666667
decision_type=2 2 2 2 2 2 2 2 2 2 2 2 2 2 2 2 2 2 2 2 2 2 2 2 2 2 2 2
left_child=1 5 -3 12 7 8 20 9 -1 -2 -8 -9 -4 17 -15 16 -6 21 -19 25 -7 24 -23 -13 -10 -17 -14 -27
right_child=4 2 3 -5 15 6 10 11 13 -11 -12 23 26 14 -16 19 -18 18 -20 -21 -22 22 -24 -25 -26 27 -28 -29
leaf_value=-0.83475138601705234 -0.79457976366798955 -0.8666116382249297 -0.78830294767594844 -0.84187860933704728 -0.76005727571176374 -0.86965048293280056 -0.77474502513313981 -0.79457976366798955 -0.88998736674701362 -0.86640837102038981 -0.83575567657577887 -0.75440814131892675 -0.75440814131892675 -0.88514525155315338 -0.84479429160431796 -0.75440814131892675 -0.79508190894735276 -0.86287152166139625 -0.88998736674701362 -0.76893448690050747 -0.88998736674701362 -0.87642944420420488 -0.88998736674701362 -0.76118710259033107 -0.88998736674701362 -0.75440814131892675 -0.75440814131892675 -0.75440814131892675
leaf_weight=9.9572777152061445 9.957277715206148 10.694853842258452 8.8509135246276838 11.432429969310759 8.8509135246276873 7.3757612705230775 7.3757612705230695 9.957277715206148 251.51345932483673 8.4821254611015302 7.3757612705230713 10.326065778732302 27.659104764461517 10.326065778732302 7.744549334049224 179.96857500076294 7.3757612705230704 7.3757612705230695 7.3757612705230713 10.326065778732298 9.2197015881538373 7.375761270523074 9.9572777152061445 7.3757612705230704 99.203989088535309 40.197898924350739 9.5884896516799909 7.3757612705230704
leaf_count=27 27 29 24 31 24 20 20 27 682 23 20 28 75 28 21 488 20 20 20 28 25 20 27 20 269 109 26 20
internal_value=-0.831018 -0.871571 -0.791051 -0.777005 -0.76207 -0.883994 -0.845326 -0.793455 -0.886945 -0.827621 -0.80525 -0.770678 -0.760916 -0.888241 -0.867852 -0.756376 -0.775978 -0.889204 -0.876429 -0.755039 -0.880949 -0.889716 -0.884218 -0.757233 -0.889987 -0.754408 -0.754408 -0.754408
internal_weight=810.596 510.403 68.2258 57.5309 300.193 442.177 31.347 46.0985 410.83 18.4394 14.7515 27.6591 46.0985 400.873 18.0706 254.095 16.2267 382.802 14.7515 237.868 16.5955 368.05 17.333 17.7018 350.717 227.542 37.2476 47.5737
internal_count=2198 1384 185 156 814 1199 85 125 1114 50 40 75 125 1087 49 689 44 1038 40 645 45 998 47 48 951 617 101 129
is_linear=0
shrinkage=1


Tree=1
num_leaves=26
num_cat=0
split_feature=2 8 6 1 0 8 8 7 6 1 6 6 8 6 1 8 8 7 0 0 3 0 0 2 0
split_gain=376.654 145.711 414.987 206.096 36.9172 35.7533 21.1844 14.7425 5.88944 5.50571 7.64593 5.50078 3.75638 5.56564 7.87242 1.59862 1.37223 0.397075 0.140356 0.126144 0.120542 5.68434e-14 5.68434e-14 5.68434e-14 2.84217e-14
threshold=-0.4943820224719101 0.22501162250116227 1.6734413155587957 0.59166666666666679 0.4079150038494867 -0.69920966992096689 0.19525801952580199 0.44574468085106383 -0.69766085462664573 1.841666666666667 -1.0380512414368477 1.325146665349036 0.31613203161320319 -0.69766085462664573 0.29166666666666669 -1.1046025104602508 0.12831241283124131 -0.34361702127659571 0.34149123706466383 -0.23582156964076503 0.96875000000000722 0.13303588580445777 0.17511414079394566 -0.25682182985553764 0.36950630552790736
decision_type=2 2 2 2 2 2 2 2 2 2 2 2 2 2 2 2 2 2 2 2 2 2 2 2 2
left_child=6 2 3 4 11 -5 18 -6 9 10 -7 16 13 14 -3 -4 22 -14 21 -10 23 -1 -2 -19 -17
right_child=1 12 15 5 7 8 -8 -9 19 -11 -12 -13 17 -15 -16 24 -18 20 -20 -21 -22 -23 -24 -25 -26
leaf_value=-1.1352982326302059 -1.1352982326302059 -1.2169206614862553 -1.2774792377342921 -1.1666914744979173 -1.2616813482782825 -1.2760265582440842 -1.2332451472574653 -1.1649791158505876 -1.2903808474566998 -1.2932771271903016 -1.2062742577224228 -1.1810067927895935 -1.2876600998281649 -1.2985430903423048 -1.2917412212709674 -1.2985430903423048 -1.1597849612870208 -1.2985430903423048 -1.143071797283163 -1.2985430903423048 -1.2922644419687626 -1.1352982326302059 -1.1352982326302059 -1.2985430903423048 -1.2985430903423048
leaf_weight=51.45644474029541 71.058899879455566 6.7383439540863055 9.4949392080306989 7.9634974002838126 9.4949392080307025 8.882362484931944 6.1257672309875479 6.7383439540863028 6.1257672309875515 9.4949392080306989 7.0446323156356838 7.6572090387344351 9.1886508464813215 16.845859885215759 7.3509206771850586 164.78313851356506 6.1257672309875479 39.204910278320312 6.4320555925369254 20.827608585357666 7.9634974002838126 8.2697857618331891 15.620706439018248 151.61273896694183 10.720092654228209
leaf_count=168 232 22 31 26 31 29 20 22 20 31 23 25 30 55 24 538 20 128 21 68 26 27 51 495 35
internal_value=-1.25212 -1.2651 -1.24509 -1.19037 -1.15158 -1.2654 -1.14429 -1.22154 -1.2804 -1.26314 -1.24517 -1.14028 -1.2954 -1.27915 -1.25596 -1.29746 -1.13691 -1.29782 -1.13605 -1.29669 -1.29829 -1.1353 -1.1353 -1.29854 -1.29854
internal_weight=673.222 600.938 362.033 177.035 116.696 60.3388 72.2841 16.2333 52.3753 25.4219 15.927 100.463 238.905 30.9351 14.0893 184.998 92.8054 207.97 66.1583 26.9534 198.781 59.7262 86.6796 190.818 175.503
internal_count=2198 1962 1182 578 381 197 236 53 171 83 52 328 780 101 46 604 303 679 216 88 649 195 283 623 573
is_linear=0
shrinkage=1


Tree=2
num_leaves=7
num_cat=0
split_feature=5 5 0 1 0 0
split_gain=1429.95 3.46581 3.88134 2.82796 2.27374e-13 5.68434e-14
threshold=-1.2149326416049164 -1.1023674384596742 0.12509132264200398 1.0250000000000001 0.31030640570610141 -0.69057333333238502
decision_type=2 2 2 2 2 2
left_child=3 2 -2 4 -1 -3
right_child=1 5 -4 -5 -6 -7
leaf_value=-1.1590267359412245 -1.2721626318041865 -1.324959383206902 -1.3204747170645863 -1.1886575658100955 -1.1590267359412245 -1.324959383206902
leaf_weight=160.3060063123703 6.6291957497596767 40.076501578092575 11.149101942777632 8.4371582269668561 16.271662294864655 419.44729471206665
leaf_count=532 22 133 37 28 54 1392
internal_value=-1.27838 -1.32412 -1.30246 -1.16038 -1.15903 -1.32496
internal_weight=662.317 477.302 17.7783 185.015 176.578 459.524
internal_count=2198 1584 59 614 586 1525
is_linear=0
shrinkage=1


Tree=3
num_leaves=31
num_cat=0
split_feature=1 5 5 7 0 0 5 4 7 0 1 2 1 4 1 0 5 7 0 4 2 2 1 2 5 0 7 7 5 5
split_gain=440.218 202.344 270.768 168.345 32.584 20.9462 17.1154 28.4287 3.78595 2.81574 2.55611 2.01764 1.81394 3.80439 1.48538 1.06847 0.320127 0.632223 0.309156 0.108161 0.094557 0.0900025 0.0406016 0.0840617 0.00299933 0.00259535 0.00245654 0.00216067 0.00194654 0.00188585
threshold=-0.074999999999999983 -1.2149326416049164 1.5422211061992206 0.73297872340425541 0.5822610251305057 0.4517379247499092 1.1743817951621749 0.72034820457018511 -0.82446808510638292 0.36950630552790736 1.0250000000000001 -0.14767255216693417 -0.19166666666666662 -0.45919477693144711 -0.29166666666666657 0.47294494377822932 -1.1023674384596742 -0.079787234042553182 0.27058249269634732 -0.39390642002176274 -0.3788121990369181 -0.43659711075441404 -0.24166666666666664 -0.083467094703049749 -0.98044874899776191 0.66080266762030748 0.28191489361702132 0.27340425531914897 3.2662224623386469 0.80496056570601893
decision_type=2 2 2 2 2 2 2 2 2 2 2 2 2 2 2 2 2 2 2 2 2 2 2 2 2 2 2 2 2 2
left_child=3 9 6 4 12 10 8 11 -3 -2 19 -8 15 -14 -5 22 17 -10 -13 -4 -15 -18 28 -24 -23 -16 29 -21 -1 -26
right_child=1 2 5 14 -6 -7 7 -9 16 -11 -12 18 13 20 25 -17 21 -19 -20 27 -22 24 23 -25 26 -27 -28 -29 -30 -31
leaf_value=-0.056667785826541764 -0.056975683902582501 0.035804104500177229 -0.050498775912951314 0.046482431185286666 0.044323614850326827 0.029626573171497618 0.038714826659166313 -0.042231593242645457 0.053700830797127785 -0.023871721583641814 -0.024781382532708444 0.059765638536053239 -0.021219774651937695 -0.050279351279194695 0.072596497304766722 -0.037153743970383506 0.066151879540383929 0.074343308907154571 0.072682836031416051 -0.056861725610835127 -0.05698189417341229 0.072377704916279942 -0.050063399036278426 -0.056767291860150053 0.07180131374125108 0.07151857884231537 0.071557721909871932 -0.057682202354862745 -0.057458583135568078 0.072477009135123185
leaf_weight=244.8760958313942 52.064458429813385 7.7887692749500266 7.2953161299228659 7.4296884238719931 8.5434638857841474 8.8902424275875074 8.5364846587181109 9.1857908070087415 7.4218729138374329 7.3275494575500479 7.361795336008071 7.4358962178230312 12.09518378973007 7.288130700588229 8.1916619241237658 7.3127342462539664 7.44178682565689 7.4151391685008985 12.284982711076735 37.104957491159439 18.928336441516876 16.768090546131134 7.2754262685775783 13.088251501321791 77.220362991094589 17.543882131576538 144.07155725359917 10.238110810518263 8.0370903015136701 11.920389771461485
leaf_count=674 143 21 20 20 23 24 23 25 20 20 20 20 33 20 22 20 20 20 33 102 52 45 20 36 207 47 386 28 22 32
internal_value=-5.23604e-05 0.0330596 0.0462034 -0.0411679 -0.0520402 -0.0421476 0.0659307 0.0341819 0.0701756 -0.0528914 -0.0524393 0.059022 -0.0546218 -0.0444166 0.0661762 -0.0560153 0.0711589 0.0640174 0.0678123 -0.0561659 -0.0551186 0.0715705 -0.05652 -0.0543722 0.0717318 0.0718617 0.0716854 -0.0570392 -0.0566929 0.0718917
internal_weight=808.383 447.774 388.382 360.61 327.445 70.8904 317.491 37.4432 280.048 59.392 62.0002 28.2574 318.901 38.3117 33.1652 280.59 272.259 14.837 19.7209 54.6384 26.2165 257.422 273.277 20.3637 249.98 25.7355 233.212 47.3431 252.913 89.1408
internal_count=2198 1209 1046 989 900 194 852 101 751 163 170 76 877 105 89 772 730 40 53 150 72 690 752 56 670 69 625 130 696 239
is_linear=0
shrinkage=0.05


Tree=4
num_leaves=31
num_cat=0
split_feature=2 8 6 1 8 8 0 6 8 6 8 1 6 8 8 6 8 4 1 1 6 2 8 8 6 8 4 2 8 0
split_gain=322.893 124.269 347.879 168.068 50.1692 32.9905 32.8628 17.005 8.68106 4.62404 4.09408 3.97661 3.48816 2.47514 2.22737 3.57319 1.55825 0.771835 0.317623 0.234944 0.637672 0.127561 0.00719692 0.00624105 0.00035861 0.000161371 9.78091e-05 5.48247e-05 3.15017e-05 2.84517e-05
threshold=-0.45585874799357945 0.25104602510460255 1.6734413155587957 0.57500000000000007 0.29567642956764301 -0.69920966992096689 0.43786987682810236 -1.0000000180025095e-35 0.14132961413296144 -0.69766085462664573 -0.0092980009298000901 1.7250000000000003 1.325146665349036 0.14690841469084151 0.31613203161320319 -0.23195432038290284 -1.1046025104602508 0.3547334058759522 0.35833333333333334 -0.041666666666666664 -0.95240350793014505 -0.24398073836276082 0.018596001859600187 0.076243607624360776 -0.77502394382984729 0.13575081357508137 -0.076169749727965155 -0.025682182985553772 -0.10785681078568106 0.29440787192868884
decision_type=2 2 2 2 2 2 2 2 2 2 2 2 2 2 2 2 2 2 2 2 2 2 2 2 2 2 2 2 2 2
left_child=4 2 3 6 13 -5 8 -8 12 10 11 -7 23 18 15 -3 -4 -12 22 20 -16 -11 28 24 -2 29 -23 -17 -1 -18
right_child=1 14 16 5 -6 9 7 -9 -10 21 17 -13 -14 -15 19 27 25 -19 -20 -21 -22 26 -24 -25 -26 -27 -28 -29 -30 -31
leaf_value=0.10350860206022104 0.10389681343727671 -0.0055705172438672871 -0.02492582707815728 0.077963666918734048 -0.046167007194154272 0.030643704979111803 0.061371795054213189 -0.046487953947445058 0.046550469006957695 -0.03748032699056375 -0.021832944281238092 -0.023303178673995523 0.068604684201727037 0.070163294868572285 -0.030391432187131241 -0.045875912677849164 -0.045886783959604188 -0.046451877568079863 0.092045934555610304 -0.045708726522728921 -0.045713339219892048 -0.045936811743966049 0.10527144781011827 0.10508075776501911 0.10351106930032468 -0.045687641948291759 -0.045709813613558081 -0.045668599451670962 0.10362462929584118 -0.045801264389082136
leaf_weight=55.018720865249627 6.5368585288524619 9.7521764636039752 9.3662775456905347 8.3210197985172254 6.3182095587253562 7.088718533515932 9.1614841818809492 6.07897925376892 7.9345981180667868 5.9573371708393124 6.0803661942481977 6.5933042168617249 7.6977266967296591 6.3490614295005789 9.7803034484386462 6.2570967078208923 149.94241824746132 6.6826844215393066 6.4105386435985556 166.14493715763092 22.214882999658585 7.463343262672427 6.4906567335128775 7.1468009650707236 76.959745347499847 11.53872364759445 13.030815750360487 6.5038995146751386 6.5459861755371156 10.400190502405165
leaf_count=168 20 32 31 26 21 23 29 20 25 20 20 22 24 20 33 21 503 22 20 561 75 25 20 22 235 39 44 22 20 35
internal_value=-0.000270318 -0.0136529 0.00429548 0.0529778 0.0895223 -0.0145811 0.0870127 0.0183497 0.0968593 -0.0291391 -0.0143541 0.00464695 0.100918 0.100131 -0.0432598 -0.0283567 -0.044786 -0.0347233 0.102686 -0.0449532 -0.0410297 -0.0439204 0.103688 0.103663 0.103541 -0.0458682 -0.0457925 -0.0457703 0.103521 -0.0458812
internal_weight=671.768 584.635 363.981 182.734 87.1332 61.2176 121.516 15.2405 106.276 52.8966 26.4451 13.682 98.3411 80.815 220.653 22.5132 181.248 12.7631 74.4659 198.14 31.9952 26.4515 68.0554 90.6434 83.4966 171.881 20.4942 12.761 61.5647 160.343
internal_count=2198 1929 1185 577 269 202 375 49 326 176 87 45 301 248 744 75 608 42 228 669 108 89 208 277 255 577 69 43 188 538
is_linear=0
shrinkage=0.05


Tree=5
num_leaves=31
num_cat=0
split_feature=5 5 7 1 8 1 8 5 8 5 5 1 5 1 2 8 1 8 8 2 1 7 7 8 1 8 2 5 1 5
split_gain=1241.92 3.40215 2.31946 2.13794 0.0239093 0.00154853 0.00162113 0.00150409 0.00122015 0.000274781 0.00011134 0.000103748 6.62006e-05 8.52959e-05 4.76326e-05 4.32366e-05 3.63092e-05 7.3732e-05 6.13646e-05 5.77214e-05 3.9167e-05 2.62375e-05 2.16813e-05 2.25229e-05 8.17338e-05 2.02122e-05 2.01927e-05 1.48066e-05 1.38371e-05 9.16375e-06
threshold=-1.2149326416049164 -1.1023674384596742 -0.079787234042553182 1.0250000000000001 0.16271501627150167 0.59166666666666679 0.09483960948396096 1.358894458172953 -1.1046025104602508 3.2662224623386469 -0.98044874899776191 1.4916666666666669 1.1743817951621749 0.075000000000000011 -0.44943820224719094 0.039051603905160402 0.025000000000000005 0.076243607624360776 0.20269642026964205 -0.48796147672552165 0.54166666666666685 0.3308510638297873 -0.80744680851063821 0.30125523012552308 0.95833333333333337 0.09483960948396096 0.019261637239165335 1.0000000180025095e-35 0.10833333333333335 1.9021846662209885
decision_type=2 2 2 2 2 2 2 2 2 2 2 2 2 2 2 2 2 2 2 2 2 2 2 2 2 2 2 2 2 2
left_child=3 2 -2 4 5 6 8 10 -1 11 28 16 14 -14 -12 -10 17 -9 19 -18 29 -15 -16 24 -24 27 -19 -26 -3 -21
right_child=1 7 -4 -5 -6 -7 -8 9 15 -11 12 -13 13 21 22 -17 18 26 -20 20 -22 -23 23 -25 25 -27 -28 -29 -30 -31
leaf_value=0.10656668856339269 -0.0037535876421674573 -0.045446106898608118 -0.040217016127720835 0.081129051341339242 0.10847310841616364 0.10679834589961981 0.10667935577704138 -0.045435875156433762 0.10595214061589703 -0.045773457092414302 -0.045141388174311348 -0.045644531621887321 -0.045508057843777303 -0.045356170303875488 -0.045164282241162881 0.10607327078492584 -0.04530689814711996 -0.045599646939593334 -0.045285276210286017 -0.045379352354977309 -0.045533279422509843 -0.04521253081577857 -0.045410711935932373 -0.045252249030392405 -0.04525041870140116 -0.045327767162105029 -0.045491794299724643 -0.045154760036734694 -0.045355303950774174 -0.045442831349265148
leaf_weight=8.7056208550930005 8.3206240534782427 6.7440416812896755 9.1652098596096021 8.9072232246398908 10.855322033166884 6.7629365324974051 9.0226965546607953 109.92064344882965 146.19686871767044 6.5303146243095389 9.2704683840274793 6.2028724253177634 5.877497702836993 5.8430584073066694 6.0887211561202994 7.7578571736812583 8.1655044853687269 8.8473611772060412 9.3240036666393262 9.0659853816032427 10.884895652532576 6.9733037054538727 10.831748902797697 165.00965791940689 13.386052310466772 5.8373882472515097 8.5181860327720624 5.7971540391445151 11.102428108453749 15.246255487203596
leaf_count=27 28 23 31 28 34 21 28 375 452 22 32 21 20 20 21 24 28 30 32 31 37 24 37 567 46 20 29 20 38 52
internal_value=0.000338675 -0.0445002 -0.0228659 0.105068 0.106195 0.106056 0.106027 -0.0453494 0.105991 -0.0454547 -0.0452692 -0.0454435 -0.0452601 -0.0453503 -0.0452523 0.105958 -0.0454366 -0.045451 -0.0454016 -0.0454267 -0.0454545 -0.045278 -0.0452572 -0.0452601 -0.045296 -0.0452463 -0.0455467 -0.0452215 -0.0453896 -0.0454192
internal_weight=661.162 462.953 17.4858 198.209 189.301 178.446 171.683 445.468 162.66 192.706 252.762 186.176 234.915 18.6939 216.221 153.955 179.973 127.286 52.6866 43.3626 35.1971 12.8164 206.951 200.862 35.8523 25.0206 17.3655 19.1832 17.8465 24.3122
internal_count=2198 1584 59 614 586 552 531 1525 503 657 868 635 807 64 743 476 614 434 180 148 120 44 711 690 123 86 59 66 61 83
is_linear=0
shrinkage=0.05


Tree=6
num_leaves=31
num_cat=0
split_feature=8 6 5 8 5 5 5 5 0 8 5 7 7 4 2 8 5 4 2 5 5 5 5 2 2 7 8 0 7 7
split_gain=725.567 42.9245 234.117 16.6398 11.218 9.3979 7.27918 7.27789 2.7947 2.46076 2.03284 1.77297 1.23438 1.62315 0.685544 1.08262 0.670534 0.112866 0.110577 0.0239875 0.00857876 0.00611814 0.00611119 0.00418232 0.00239104 0.00198533 0.00181976 0.00169764 0.00168032 0.00107679
threshold=0.21199442119944215 1.4949194645620578 1.358894458172953 0.31613203161320319 1.1743817951621749 0.98947322871679744 -1.1023674384596742 1.5422211061992206 0.41640810479869578 0.26406322640632268 -0.98044874899776191 0.26702127659574476 0.43085106382978727 0.56365614798694252 -0.24398073836276082 -0.12459321245932123 1.358894458172953 -0.52883569096844385 0.50722311396468711 -0.98044874899776191 2.0772801589898644 0.26167035765798458 -1.3176623369522955 -0.50080256821829849 -0.29534510433386835 0.50319148936170222 -0.3942352394235239 0.27691236721281726 -0.092553191489361683 -0.64574468085106373
decision_type=2 2 2 2 2 2 2 2 2 2 2 2 2 2 2 2 2 2 2 2 2 2 2 2 2 2 2 2 2 2
left_child=1 2 5 4 6 14 -2 -4 22 -6 11 -5 17 -14 15 -1 24 -9 19 -16 23 -8 -3 -19 25 -12 -21 28 -25 -24
right_child=3 8 7 10 9 -7 21 12 -10 -11 16 -13 13 -15 18 -17 -18 20 -20 26 -22 -23 29 27 -26 -27 -28 -29 -30 -31
leaf_value=0.044374331819115431 0.017768218138842783 -0.054606896944634734 -0.013111069695180354 0.030643839946745979 -0.021041093580965755 0.016960090118139894 0.068125408610765145 -0.048347121619121088 -0.024481591655998159 0.018298895136222529 0.068384041355367159 0.063636849715766095 -0.055344451506889152 -0.027700003093312844 0.071227047787961087 0.069927455992961296 0.054485594282834331 -0.054664895165253871 0.062649781916921707 0.068821684811609538 -0.054566744259700609 0.069907530351846686 -0.055930055769552081 -0.056010447208908756 0.067331797529377874 0.067568537183463437 0.067878537320743032 -0.05642508642533392 -0.054964950356133038 -0.055144289278208761
leaf_weight=9.3099240064620989 10.744309276342394 196.17879328131676 12.090483337640761 7.4500984251499203 7.7437831759452811 12.927305251359938 11.617703706026079 7.1756696403026572 7.9422514438629142 8.1676253676414472 9.3655036687850934 8.9799248576164228 10.770977675914766 10.472631156444548 9.6938000917434675 7.4715931713581076 10.487206846475599 11.420541405677794 8.2349823415279371 8.2364521920680982 131.20809200406075 8.225939601659773 9.7474202513694781 8.3010202944278699 185.23118305206299 36.74140653014183 13.492622613906866 7.9619221687316886 7.1563075482845333 7.8884202837944022
leaf_count=25 29 550 33 20 21 35 31 20 22 22 25 24 30 29 26 20 28 32 22 22 368 22 27 23 494 98 36 22 20 22
internal_value=-2.04779e-05 -0.0372256 -0.0240615 0.0607376 0.0332036 0.0554146 0.0509162 -0.0507514 -0.0536052 -0.000847137 0.0656951 0.0486764 -0.0530916 -0.0417163 0.0642225 0.0557513 0.0668514 -0.0544866 0.0678072 0.0691588 -0.0547519 0.0688642 -0.054687 -0.0554494 0.067412 0.0677342 0.068236 -0.0558319 -0.0555264 -0.0555786
internal_weight=802.436 497.681 275.924 304.755 46.4994 69.3667 30.588 206.558 221.757 15.9114 258.255 16.43 194.467 21.2436 56.4394 16.7815 241.825 173.224 39.6579 31.4229 166.048 19.8436 213.815 34.8398 231.338 46.1069 21.7291 23.4193 15.4573 17.6358
internal_count=2198 1384 763 814 125 186 82 577 621 43 689 44 544 59 151 45 645 485 106 84 465 53 599 97 617 123 58 65 43 49
is_linear=0
shrinkage=0.05


Tree=7
num_leaves=31
num_cat=0
split_feature=5 0 5 4 2 5 1 7 4 5 7 2 2 1 0 5 5 5 2 5 2 5 7 0 2 7 2 2 0 5
split_gain=956.345 42.2182 14.4069 16.3124 12.0365 8.33261 2.80347 1.29758 0.247959 0.171075 0.439363 0.0532291 0.0474788 0.0824921 0.045606 0.0367275 0.00746203 0.0026998 0.00194408 0.00131531 0.00189104 0.00225001 0.00128993 0.000524422 0.000502755 0.000430939 0.000560638 0.000373512 0.000285641 0.00026728
threshold=1.358894458172953 0.50288354166082716 1.1743817951621749 0.29815016322089233 0.51364365971107551 1.5422211061992206 1.041666666666667 -0.85851063829787222 -0.60718171926006514 0.98947322871679744 0.38510638297872346 0.59711075441412531 0.52648475120385252 0.57500000000000007 0.37677491376611916 3.144303772876734 1.9021846662209885 -0.98044874899776191 -0.13483146067415727 -1.2149326416049164 1.0000000180025095e-35 -1.1023674384596742 -0.74787234042553175 0.3873540512731965 -0.43659711075441404 0.28191489361702132 -0.26324237560192615 0.43659711075441415 -0.78351410796335863 1.0000000180025095e-35
decision_type=2 2 2 2 2 2 2 2 2 2 2 2 2 2 2 2 2 2 2 2 2 2 2 2 2 2 2 2 2 2
left_child=2 5 7 -4 -3 -2 8 -1 -7 17 -11 12 13 14 15 16 -10 19 -12 23 21 -21 -19 28 -24 26 -26 -18 -9 -28
right_child=1 4 3 -5 -6 6 -8 9 11 10 18 -13 -14 -15 -16 -17 27 22 -20 20 -22 -23 24 -25 25 -27 29 -29 -30 -31
leaf_value=-0.026791263062857069 0.047029788244221486 0.044431782212864951 -0.045292164449237643 0.046449920775498164 -0.045730600822448508 0.084431745484952567 0.060321845617923892 -0.045447516855476003 0.094684247452067619 -0.028875609111389151 -0.046083142282345523 0.098049579662610645 0.09014294871451789 0.099283593287635308 0.097638891123437752 0.096301634346489084 0.09340358655210125 -0.045606047450330277 -0.044824019535355142 -0.046394788344277987 -0.045084201502754634 -0.045229332691700617 -0.045263178670998085 -0.044762086916098898 -0.045393372399936266 -0.044798390171276695 -0.044831930407560602 0.093766163192756921 -0.045107872602152772 -0.045069006056809857
leaf_weight=10.23337861895561 10.475854635238646 8.1353925168514234 9.8823632597923297 9.5061448216438276 6.7918834984302512 6.6757639348506919 6.4277637004852286 6.4501950144767752 12.999210357666014 5.9138902127742794 6.2631090879440316 8.7411696016788465 7.4393103122711173 7.6892349720001212 8.0893001258373243 13.233669131994246 117.39690420031548 6.1771952211856833 6.0047803819179508 8.4345846474170685 18.191745579242706 8.1358917355537415 7.8524323999881736 10.832528382539747 6.7111379504203788 117.39621782302856 36.610765635967255 7.5604882538318625 153.63457199931145 17.605778932571411
leaf_count=34 33 26 34 30 23 20 20 22 38 20 21 26 22 23 24 39 341 21 21 28 63 28 27 38 23 411 128 22 531 61
internal_value=-0.000264907 0.0846145 -0.0424643 -0.000311213 0.00340806 0.0904781 0.0927974 -0.0443807 0.0938971 -0.0448132 -0.0400703 0.0942421 0.0940512 0.0942254 0.0939812 0.0937855 0.0935441 -0.0450299 -0.0454668 -0.0451558 -0.0454362 -0.0458226 -0.0448952 -0.0450988 -0.0448716 -0.0448544 -0.0449623 0.0934255 -0.0451216 -0.0449089
internal_weight=667.493 221.656 445.837 19.3885 14.9273 206.729 196.253 426.448 189.825 416.215 18.1818 183.149 174.408 166.969 159.28 151.19 137.957 398.033 12.2679 205.68 34.7622 16.5705 192.354 170.917 186.176 178.324 60.9277 124.957 160.085 54.2165
internal_count=2198 657 1541 64 49 608 575 1477 555 1443 62 535 509 487 464 440 401 1381 42 710 119 56 671 591 650 623 212 363 553 189
is_linear=0
shrinkage=0.05


Tree=8
num_leaves=31
num_cat=0
split_feature=5 5 0 0 1 8 5 8 0 5 1 1 5 5 8 0 5 4 8 1 1 8 1 1 4 1 5 2 8 6
split_gain=1090.28 3.37882 3.75739 1.90797 0.053265 0.00819325 0.00513363 0.00316583 0.00102395 0.000908123 0.000444439 0.000440194 0.000189957 0.00018678 0.000184249 0.000197617 0.000169317 0.000150189 0.000146058 0.00010172 9.39174e-05 7.99988e-05 0.000118918 7.59466e-05 0.000285588 6.16256e-05 5.15597e-05 5.81669e-05 5.31964e-05 4.52935e-05
threshold=-1.2149326416049164 -1.1023674384596742 0.12509132264200398 0.41640810479869578 1.0250000000000001 0.14132961413296144 1.358894458172953 -1.1046025104602508 0.29440787192868884 3.2662224623386469 1.4916666666666669 0.57500000000000007 -0.98044874899776191 1.5422211061992206 0.14690841469084151 0.46127403381881632 1.1743817951621749 0.45048966267682272 0.033472803347280346 0.57500000000000007 0.041666666666666678 -0.41097164109716405 1.6750000000000003 -0.20833333333333331 -0.48095756256800865 0.091666666666666688 -0.56397919792934104 -0.2889245585874799 0.2194328219432822 -0.69766085462664573
decision_type=2 2 2 2 2 2 2 2 2 2 2 2 2 2 2 2 2 2 2 2 2 2 2 2 2 2 2 2 2 2
left_child=3 2 -2 4 5 7 12 -1 11 10 13 18 20 25 19 -16 21 -18 23 -15 -3 22 -14 -9 -25 -8 27 -23 29 -28
right_child=1 6 -4 -5 -6 -7 9 8 -10 -11 -12 -13 16 14 15 -17 17 -19 -20 -21 -22 26 -24 24 -26 -27 28 -29 -30 -31
leaf_value=0.096348286587730203 0.007970051954371454 -0.044719454873413958 -0.040250602093646067 0.072997829932617567 0.09975902402715936 0.097065821814914119 -0.044665012113254118 0.095318604635465862 0.095919034040644419 -0.045337471926426447 -0.045152526874755239 0.095760509404347383 -0.04408486949288011 -0.044703375368548813 -0.045094521252136227 -0.04474038508501018 -0.044434585788137547 -0.044737486087173026 0.095565343948212311 -0.044866347602319639 -0.044476813783106472 -0.04456797658891154 -0.04440765246296275 0.095631664966759206 0.095319412253148855 -0.044448910110020542 -0.044205998166836749 -0.044410156304161327 -0.044383025078141895 -0.044378410676513935
leaf_weight=9.1640911102294904 6.5166716873645809 6.2617732286453274 10.628778070211409 9.7284394502639753 7.6758896708488455 8.1166845560073835 5.6780192255973798 112.90967333316802 8.8430851697921735 6.42043113708496 6.0820384919643393 6.8076254427433005 5.5304258167743665 134.84217751026154 6.9387318491935757 9.1131867468357068 11.804901808500292 6.2639367878437033 7.495525360107421 10.306366860866545 10.982776075601576 6.7851933836936942 5.8948511779308319 9.8772610425949079 28.312584102153792 7.873784989118576 8.3422488868236524 41.838419884443283 132.93981897830963 7.0102719664573661
leaf_count=27 22 22 37 29 23 24 20 331 26 22 21 20 20 474 24 32 42 22 22 36 39 24 21 29 83 28 30 149 474 25
internal_value=0.000294156 -0.0436901 -0.0219228 0.094619 0.0956749 0.0955113 -0.0445562 0.0954425 0.0953948 -0.0447531 -0.0447324 0.0953668 -0.044405 -0.0447177 -0.0447327 -0.0448935 -0.0443928 -0.0445396 0.0953499 -0.0447149 -0.0445649 -0.04438 -0.0442514 0.0953392 0.0954002 -0.0445395 -0.0443875 -0.0444322 -0.0443728 -0.0442847
internal_weight=656.986 448.055 17.1454 208.931 199.202 191.527 430.909 183.41 174.246 187.255 180.834 165.403 243.655 174.752 161.2 16.0519 226.41 18.0688 158.595 145.149 17.2445 208.341 11.4253 151.1 38.1898 13.5518 196.916 48.6236 148.292 15.3525
internal_count=2198 1584 59 614 585 562 1525 538 511 657 635 485 868 614 566 56 807 64 465 510 61 743 41 443 112 48 702 173 529 55
is_linear=0
shrinkage=0.05


Tree=9
num_leaves=31
num_cat=0
split_feature=8 1 5 5 1 8 0 1 5 0 5 5 0 8 5 7 5 1 2 5 5 5 7 5 0 8 1 1 7 1
split_gain=652.49 156.62 19.8539 17.0226 16.0066 14.9279 14.5913 11.3786 7.94178 6.13843 5.90034 17.5229 2.81786 2.38046 1.86148 1.6041 0.571948 0.464783 0.845519 2.3679 0.122682 0.00870756 0.00529428 0.00489886 0.00504462 0.00331588 0.00199387 0.00171632 0.00135991 0.00122183
threshold=0.21199442119944215 0.99166666666666681 -1.2149326416049164 1.358894458172953 0.3083333333333334 0.31613203161320319 0.4079150038494867 0.025000000000000005 1.1743817951621749 0.49277174932666351 1.5422211061992206 -1.2149326416049164 0.4079150038494867 -0.59507205950720576 -0.98044874899776191 0.26702127659574476 1.358894458172953 -0.058333333333333327 -0.0064205457463884412 1.1743817951621749 -0.84969864776475224 1.0000000180025095e-35 0.15744680851063833 3.2662224623386469 0.41640810479869578 0.098558809855881002 -0.058333333333333327 0.57500000000000007 0.76702127659574482 -0.25833333333333325
decision_type=2 2 2 2 2 2 2 2 2 2 2 2 2 2 2 2 2 2 2 2 2 2 2 2 2 2 2 2 2 2
left_child=1 4 -3 13 9 7 10 8 -2 17 11 -6 -9 -4 15 -7 26 23 19 -19 -14 -15 -21 24 -1 -20 28 -12 -16 -30
right_child=5 2 3 -5 6 14 -8 12 -10 -11 27 -13 20 21 16 -17 -18 18 25 22 -22 -23 -24 -25 -26 -27 -28 -29 29 -31
leaf_value=-0.052697341036909554 0.030998852866377703 -0.029677545348764597 0.035886065996413676 -0.0092914208479911078 -0.052888878634673522 0.028753355067828962 0.043515671332682922 0.030278992517924881 -0.034805122200311615 -0.011159803839602626 -0.052916859690605472 0.029551470142176236 0.058458497537783753 0.06398792613175526 0.064759083332786294 0.060127768409434762 0.051873518993270987 -0.023026378603853991 -0.052700754778726391 -0.052643022977838606 0.066840080353566714 0.065593261982948584 -0.05447514492795702 -0.054002985661752094 -0.053987248446040428 -0.053845672218393259 0.06374878897575513 -0.05388386283625432 0.064499262864860393 0.0637638931986894
leaf_weight=279.6025202870369 10.039536833763124 10.273979932069777 8.9757569432258588 11.321562021970747 14.678996980190277 7.4536832869052914 7.4350233376026145 10.041114985942842 8.4395852386951429 9.4751807153224927 11.186643630266191 11.491750717163086 7.4808396100997969 25.077918410301208 7.4908688664436331 8.9848881065845472 10.492492794990538 10.667023599147798 28.590025991201401 8.3612975478172284 10.484952241182324 12.737400740385054 7.4621909260749808 7.7907864153385153 7.7908921837806693 8.1201030910015088 197.20661398768425 7.7798406779766074 8.2397006750106829 17.962512135505676
leaf_count=802 27 29 24 31 42 20 20 27 23 26 32 31 20 67 20 24 28 30 82 24 28 34 21 22 22 23 527 22 22 48
internal_value=2.83387e-06 -0.0357798 0.0343953 0.045723 -0.0471943 0.0574798 -0.0213875 0.0313996 0.000945571 -0.0508825 -0.0320783 -0.0166888 0.0514933 0.0590343 0.062182 0.0459018 0.0632907 -0.0519327 -0.0480413 -0.0412333 0.06335 0.0645287 -0.053507 -0.0527658 -0.0527323 -0.052954 0.0638095 -0.0533135 0.064165 0.0639951
internal_weight=793.136 488.819 68.3866 58.1126 420.432 304.317 52.5723 46.486 18.4791 367.86 45.1372 26.1707 28.0069 46.7911 257.831 16.4386 241.392 358.385 63.2006 26.4905 17.9658 37.8153 15.8235 295.184 287.393 36.7101 230.9 18.9665 33.6931 26.2022
internal_count=2198 1384 185 156 1199 814 147 125 50 1052 127 73 75 125 689 44 645 1026 180 75 48 101 45 846 824 105 617 54 90 70
is_linear=0
shrinkage=0.05


Tree=10
num_leaves=31
num_cat=0
split_feature=5 8 5 4 1 0 5 4 6 3 8 1 5 8 4 8 1 0 5 8 8 4 5 1 8 8 8 6 5 1
split_gain=850.244 47.2249 13.9225 15.0222 12.5693 3.04189 2.18181 0.707371 1.75447 0.188614 0.436995 0.126269 0.0977485 0.0952962 0.0955977 0.00848987 0.00497985 0.0036995 0.00272101 0.000802404 0.000772109 0.000721896 0.000675767 0.00328829 0.00503412 0.00100563 0.000628998 0.000434396 0.000224953 0.000224129
threshold=1.358894458172953 0.26406322640632268 1.1743817951621749 0.29815016322089233 1.3750000000000002 0.53280310113522444 1.5422211061992206 1.1773667029379762 -0.1159771601914516 0.91875000000000295 0.13575081357508137 0.79166666666666685 3.2662224623386469 0.12831241283124131 -0.13275299238302493 0.31613203161320319 0.4250000000000001 0.31030640570610141 0.80496056570601893 -1.1046025104602508 0.51510925151092535 -0.43743199129488569 -1.2149326416049164 0.44166666666666671 0.20269642026964205 -0.46304044630404456 0.14132961413296144 -0.69766085462664573 -1.4101166201749844 0.97500000000000009
decision_type=2 2 2 2 2 2 2 2 2 2 2 2 2 2 2 2 2 2 2 2 2 2 2 2 2 2 2 2 2 2
left_child=2 4 7 -4 6 -3 -2 9 -9 15 -11 12 13 16 -15 18 17 21 19 -1 -12 -8 26 24 -24 -25 -21 -27 -10 -29
right_child=1 5 3 -5 -6 -7 11 8 28 10 20 -13 -14 14 -16 -17 -18 -19 -20 22 -22 -23 23 25 -26 27 -28 29 -30 -31
leaf_value=-0.044948171753803445 0.062083213114743879 0.010686032868051342 -0.044539715624299904 0.043785834216016291 0.014045422340115229 -0.0377971440015408 0.085836012134819034 -0.011312871790080494 -0.044462237470989978 -0.027632062412866948 -0.044823510768190022 0.09234612355406753 0.091590557541242609 0.085661690362376378 0.093998020243251434 -0.043982380229018014 0.086698848128194492 0.086317615930107894 -0.04536017401749573 -0.044385017566224837 -0.044021549221982842 0.085343248343793393 -0.046304399473097516 -0.044884645874790664 -0.04446862265181617 -0.044553234307541018 -0.043977960438907192 -0.044338234148019996 -0.044045220962987026 -0.043979424118266747
leaf_weight=7.1858573555946341 9.7477817237377149 6.0899374783039075 9.5616094768047351 9.6950578987598401 6.3986974358558646 6.9015558362007141 7.8384395837783805 5.8312619030475643 7.3171927630901346 5.7360546588897732 5.6977268159389478 8.2976008355617505 7.6336420178413382 6.8945776522159576 6.8616687357425672 158.25028973817825 8.1620698869228345 11.020685732364653 8.1511226892471296 141.08534213900566 6.3420165777206421 143.53023782372475 6.0171334743499747 5.9896030426025382 9.8437848687171918 5.9270127713680258 10.17467626929283 5.8755991160869661 5.7950416505336735 16.786089450120926
leaf_count=25 29 20 34 30 20 24 22 20 26 20 20 24 22 20 20 575 23 31 28 503 23 402 20 21 35 21 37 21 21 61
internal_value=-0.000257565 0.0775202 -0.0416255 -7.08933e-05 0.0830792 -0.01507 0.0851828 -0.0435677 -0.0341305 -0.0440225 -0.0389899 0.0863073 0.0860463 0.0858166 0.0898199 -0.0442609 0.0854937 0.0854332 -0.044464 -0.044429 -0.0444011 0.0853688 -0.0444105 -0.044569 -0.0451651 -0.0442956 -0.0443576 -0.0441721 -0.0442779 -0.0440725
internal_weight=660.639 229.377 431.262 19.2567 216.385 12.9915 209.987 412.006 18.9435 393.062 17.7758 200.239 191.941 184.308 13.7562 375.287 170.551 162.389 217.036 208.885 12.0397 151.369 201.699 50.4392 15.8609 34.5783 151.26 28.5887 13.1122 22.6617
internal_count=2198 657 1541 64 613 44 593 1477 67 1410 63 564 540 518 40 1347 478 455 772 744 43 424 719 179 55 124 540 103 47 82
is_linear=0
shrinkage=0.05


Tree=11
num_leaves=31
num_cat=0
split_feature=5 5 0 1 0 8 5 8 0 5 1 1 5 5 5 8 1 8 8 8 0 7 8 1 1 5 2 8 7 1
split_gain=966.562 3.33915 3.64334 1.76845 0.0868881 0.0159673 0.00746144 0.00334699 0.000998651 0.00089875 0.000620017 0.000321848 0.000260179 0.000260625 0.000190599 0.000157434 0.000133761 0.000187953 0.000122119 9.92187e-05 9.27961e-05 8.97621e-05 8.04145e-05 6.31593e-05 0.000336062 4.15343e-05 4.61433e-05 3.45693e-05 1.71202e-05 1.69952e-05
threshold=-1.2149326416049164 -1.1023674384596742 0.12509132264200398 1.0250000000000001 0.41640810479869578 0.16271501627150167 1.358894458172953 -1.1046025104602508 0.29440787192868884 3.2662224623386469 1.4916666666666669 0.57500000000000007 -0.98044874899776191 1.1743817951621749 1.5422211061992206 0.31613203161320319 0.57500000000000007 0.14132961413296144 0.033472803347280346 0.20269642026964205 0.42232486414383913 -0.39680851063829786 0.27708042770804281 -0.1583333333333333 -0.09166666666666666 -0.56397919792934104 -0.2889245585874799 0.2194328219432822 0.43936170212765963 1.6750000000000003
decision_type=2 2 2 2 2 2 2 2 2 2 2 2 2 2 2 2 2 2 2 2 2 2 2 2 2 2 2 2 2 2
left_child=3 2 -2 4 5 7 12 -1 11 10 14 18 22 25 20 -15 17 28 23 -19 -8 -18 -3 -9 -25 26 -14 -28 -16 -27
right_child=1 6 -4 -5 -6 -7 9 8 -10 -11 -12 -13 13 15 16 -17 21 19 -20 -21 -22 -23 -24 24 -26 29 27 -29 -30 -31
leaf_value=0.087928508124427762 0.0082564955953369316 -0.043687063874852508 -0.039521523432590758 0.065510446812903966 0.092321092756929513 0.089444399248854251 -0.043678146557577582 0.086898459240230472 0.087446699031495781 -0.044641540189623685 -0.04453356488941855 0.087269026618283507 -0.043758122157800908 -0.043931294899223094 -0.044001505909641303 -0.043629348766658527 -0.044336826800795724 -0.044320968163319541 0.087113525180362292 -0.044063178325554703 -0.043946564196472034 -0.044052630685985174 -0.043909461585812236 0.087281806730325873 0.086894218868849987 -0.043572564677451742 -0.043709517087685418 -0.043593159229681877 -0.043932156358200164 -0.04361323954324161
leaf_weight=9.532957971096037 6.4934180378913906 7.0505104362964657 10.349993288516997 9.7404403388500196 8.3029531836509687 7.0113360583782187 5.6909857988357526 123.42614629864691 10.260751754045485 6.2373248338699332 5.9236956834793082 7.0819026827812186 6.5310564637184134 9.6035538613796252 120.39328920841217 7.8421885371208182 5.5950517654418945 6.9895539581775656 8.1497562527656537 8.0099373757839185 7.4157336354255676 5.5191171467304212 9.5973641574382764 7.0815001726150504 26.600948452949538 119.71885102987289 7.8724637925624839 33.742717623710632 9.6097631156444532 32.694411069154739
leaf_count=27 22 26 37 28 24 20 21 348 29 22 21 20 24 35 437 29 20 25 23 29 27 20 35 20 75 444 29 125 35 121
internal_value=0.000258295 -0.0429273 -0.0211023 0.086332 0.0873096 0.0871007 -0.0438109 0.0870152 0.0869675 -0.0440518 -0.0440308 0.086939 -0.0436248 -0.0436102 -0.0440132 -0.0437956 -0.0440285 -0.0440157 0.0869248 -0.0441833 -0.04383 -0.0441957 -0.0438153 0.086915 0.0869757 -0.0435941 -0.0436346 -0.0436152 -0.0439964 -0.0435813
internal_weight=650.07 432.881 16.8434 217.189 207.448 199.145 416.038 192.134 182.601 181.384 175.147 172.34 234.653 218.005 169.223 17.4457 156.117 145.003 165.258 14.9995 13.1067 11.1142 16.6479 157.109 33.6824 200.559 48.1462 41.6152 130.003 152.413
internal_count=2198 1584 59 614 586 562 1525 542 515 657 635 486 868 807 614 64 566 526 466 54 48 40 61 443 95 743 178 154 472 565
is_linear=0
shrinkage=0.05


Tree=12
num_leaves=31
num_cat=0
split_feature=8 1 1 8 0 1 1 4 0 8 8 0 0 7 7 1 4 0 1 1 2 8 2 4 7 8 3 8 4 0
split_gain=588.429 143.023 15.0306 13.5787 13.2725 10.8655 10.383 7.46812 5.7365 4.59417 4.12094 3.19687 2.58221 1.45032 1.41324 3.62107 1.2897 1.25892 1.18409 0.444434 0.798128 1.9072 0.377371 0.102443 0.0911299 0.0786785 0.0686823 0.00783912 0.00719627 0.0037444
threshold=0.21199442119944215 0.99166666666666681 0.3083333333333334 0.31613203161320319 0.4079150038494867 1.6916666666666669 0.025000000000000005 0.79869423286180641 0.49277174932666351 0.012087401208740122 -0.4556020455602045 0.53280310113522444 0.4079150038494867 -0.47978723404255313 -0.1202127659574468 0.34166666666666673 0.13275299238302507 0.029800452591930326 1.8916666666666668 -0.058333333333333327 -0.0064205457463884412 0.039051603905160402 1.213483146067416 -0.023939064200217578 0.28191489361702132 -0.25104602510460244 0.96875000000000722 0.37935843793584384 -0.14581066376496185 0.41640810479869578
decision_type=2 2 2 2 2 2 2 2 2 2 2 2 2 2 2 2 2 2 2 2 2 2 2 2 2 2 2 2 2 2
left_child=1 2 8 6 9 7 11 10 19 17 -3 -2 -8 18 15 -5 -12 23 -7 29 21 25 26 -4 -14 -21 27 28 -16 -1
right_child=3 5 4 14 -6 13 12 -9 -10 -11 16 -13 24 -15 22 -17 -18 -19 -20 20 -22 -23 -24 -25 -26 -27 -28 -29 -30 -31
leaf_value=-0.051058863215837871 -0.025064664245898038 -0.0018338297662650899 -0.04469472641067776 0.018581215968257472 0.041451651695334685 0.031859806854057274 0.028638162160112147 -0.026169155674138703 -0.010735013722470366 -0.0069510749145520415 0.025516030799613804 0.017502645211453682 0.056281333643276789 0.066776994535986345 0.062755970623073407 0.060998271609653203 0.053663360239646032 -0.028610932228216063 0.055170125113150531 -0.04474109307220487 -0.051258212463839527 -0.019822168753712684 0.049216159529793711 -0.052354176819034294 0.063475531396982435 -0.051578084294434438 0.056780136965893208 0.060754506418071168 0.061051311804505841 -0.052182934710308597
leaf_weight=280.08984333276749 7.3200892508029964 8.328278034925459 6.8385143280029324 7.4249400198459652 7.4284289181232444 9.5797029733657855 10.028646200895311 9.066823482513426 9.426534563302992 13.899104565382002 7.2571384012699189 11.097773700952528 7.817581087350848 11.85108423233032 9.7051180303096789 15.608596593141554 9.2654985189437848 11.510051816701887 12.631061941385267 6.8334741294384029 35.791476666927338 8.2148521244525892 7.4240888655185691 12.071162045001985 10.074547499418257 10.951782613992693 10.788315951824186 187.93164214491844 17.099247515201569 7.6098506152629843
leaf_count=824 20 23 20 20 20 26 27 25 26 39 20 30 21 32 26 42 25 33 34 20 105 23 20 35 27 32 29 506 46 22
internal_value=2.09629e-05 -0.0344718 -0.045592 0.0546312 -0.0203997 0.0327053 0.0297255 0.0126732 -0.0492241 -0.0307668 0.0268448 0.000584477 0.0489483 0.0526526 0.0591397 0.047325 0.0413004 -0.0416485 0.0451162 -0.0502623 -0.0464149 -0.0397477 0.0603079 -0.0495842 0.0603322 -0.0489512 0.060673 0.0608686 0.0616685 -0.0510886
internal_weight=780.965 478.645 410.665 302.321 51.7473 67.9796 46.3386 33.9177 358.918 44.3188 24.8509 18.4179 27.9208 34.0618 255.982 23.0335 16.5226 30.4197 22.2108 349.491 61.7916 26.0001 232.948 18.9097 17.8921 17.7853 225.524 214.736 26.8044 287.7
internal_count=2198 1384 1199 814 147 185 125 93 1052 127 68 50 75 92 689 62 45 88 60 1026 180 75 627 55 48 52 607 578 72 846
is_linear=0
shrinkage=0.05


Tree=13
num_leaves=31
num_cat=0
split_feature=5 8 5 4 5 2 7 5 7 8 8 0 5 0 5 5 7 8 0 4 4 5 5 2 8 5 2 2 0 5
split_gain=761.657 40.1537 13.4566 13.7771 3.91428 3.14777 1.31945 0.685957 1.36983 0.246807 0.313334 0.488281 0.18138 0.45035 0.0686603 0.0233084 0.0202862 0.00876256 0.00284428 0.00187101 0.00102573 0.000684571 0.00313137 0.0023649 0.00095423 0.00088078 0.000509512 0.000423756 0.000383076 0.000288132
threshold=1.358894458172953 0.26406322640632268 1.1743817951621749 0.29815016322089233 1.5422211061992206 0.62279293739967911 -0.85851063829787222 1.7235767063893102 0.27340425531914897 0.14132961413296144 0.027894002789400282 0.35773378289036134 0.98947322871679744 0.34717902754960267 3.2662224623386469 2.0772801589898644 -0.14999999999999997 0.31613203161320319 0.16688780106273524 0.28944504896626772 1.3775843307943416 -1.2149326416049164 -1.1023674384596742 1.0000000180025095e-35 0.14132961413296144 1.0000000180025095e-35 -0.25040128410914925 0.37239165329052976 -0.14726826424648207 -0.98044874899776191
decision_type=2 2 2 2 2 2 2 2 2 2 2 2 2 2 2 2 2 2 2 2 2 2 2 2 2 2 2 2 2 2
left_child=2 4 6 -4 -2 -3 -1 8 -6 10 14 -12 17 -14 15 16 -9 21 -18 -15 27 24 23 -23 -8 26 -24 -17 -29 -19
right_child=1 5 3 -5 7 -7 12 9 -10 -11 11 -13 13 19 -16 20 18 29 -20 -21 -22 22 25 -25 -26 -27 -28 28 -30 -31
leaf_value=-0.024667444647399169 0.049919594931280856 0.012148673941603733 -0.043789533411169979 0.04123414835981342 0.082681411005954997 -0.037546071195118033 -0.043694320863739228 0.082805833418707536 0.052032281244873115 0.086982348469717419 0.062397895816904358 0.080566225718760084 -0.026590047331866332 -0.043282867272754655 0.083904922071829022 0.078806982320696162 0.078944576156522187 -0.043460086053473027 0.080291298655294108 -0.044561771460324369 0.079369366330343652 -0.045123700134904424 -0.043840576886841204 -0.043788925935422475 -0.043202346757967428 -0.044010998826635318 -0.043375987366690204 0.079238027063852468 0.078829865422406331 -0.043202949907382049
leaf_weight=9.7678956091403943 12.835744202136992 5.9769487679004651 9.2153260707855242 9.8647747635841352 7.5658749938011152 6.8255380392074585 148.14610743522644 7.2012017667293575 7.0358575582504272 9.5626044571399671 7.1702114045619947 7.636926144361496 5.5855522751808193 5.840633422136305 7.8950128555297843 106.16887891292572 8.0501002967357618 11.778597280383108 7.6429999470710746 5.6035771667957306 10.226187556982039 7.458598852157591 8.1578230261802656 5.9783180058002472 10.558643460273741 12.105786323547362 21.335891932249073 12.062905907630922 10.982128500938414 145.1372377872467
leaf_count=34 38 20 34 30 21 24 546 20 20 27 20 21 20 22 22 290 22 44 21 20 28 26 30 22 40 44 80 33 30 549
internal_value=-0.000250807 0.0717562 -0.0408478 0.000169326 0.0767208 -0.0143457 -0.0428169 0.0783652 0.0679131 0.0791495 0.0787447 0.0717684 -0.0432742 -0.0382286 0.0793515 0.0791301 0.0806087 -0.043506 0.0796005 -0.0439091 0.0788873 -0.0437143 -0.0438662 -0.0445298 -0.0436616 -0.0436519 -0.0435045 0.0788492 0.0790435 -0.0432223
internal_weight=651.374 234.839 416.535 19.0801 222.037 12.8025 397.455 209.201 14.6017 194.599 185.037 14.8071 387.687 17.0298 170.229 162.334 22.8943 370.657 15.6931 11.4442 139.44 213.741 55.0364 13.4369 158.705 41.5995 29.4937 129.214 23.045 156.916
internal_count=2198 657 1541 64 613 44 1477 575 41 534 507 41 1443 62 466 444 63 1381 43 42 381 788 202 48 586 154 110 353 63 593
is_linear=0
shrinkage=0.05


Tree=14
num_leaves=31
num_cat=0
split_feature=5 5 0 1 8 0 5 8 1 1 5 2 1 5 5 8 5 3 7 2 1 3 8 1 1 8 1 1 7 1
split_gain=863.984 3.25483 3.50861 1.51943 0.105552 0.0233946 0.00846968 0.00207974 0.00109923 0.000874582 0.000859278 0.000644259 0.000602955 0.000568288 0.000330117 0.000301766 0.000231984 0.000189675 0.000161196 0.000157775 0.00010514 0.000104183 8.01554e-05 0.000151455 8.14214e-05 7.41438e-05 0.000191134 4.5376e-05 3.04693e-05 2.39877e-05
threshold=-1.2149326416049164 -1.1023674384596742 0.12509132264200398 1.0250000000000001 0.19525801952580199 0.3873540512731965 1.358894458172953 -1.1046025104602508 -0.1583333333333333 1.3750000000000002 3.2662224623386469 -0.012841091492776886 -0.074999999999999983 -0.98044874899776191 1.1743817951621749 0.31613203161320319 1.5422211061992206 0.88125000000000153 0.46276595744680854 -0.1990369181380417 0.45833333333333343 0.068750000000001435 0.15248721524872155 0.041666666666666678 0.57500000000000007 0.27708042770804281 0.95833333333333337 1.6750000000000003 -0.74361702127659568 -0.074999999999999983
decision_type=2 2 2 2 2 2 2 2 2 2 2 2 2 2 2 2 2 2 2 2 2 2 2 2 2 2 2 2 2 2
left_child=3 2 -2 4 5 7 13 -1 17 10 16 19 -13 21 25 -16 18 -9 -8 -10 -14 -3 24 -24 -18 26 -15 -28 -29 -27
right_child=1 6 -4 -5 -6 -7 9 8 11 -11 -12 12 20 14 15 -17 22 -19 -20 -21 -22 -23 23 -25 -26 29 27 28 -30 -31
leaf_value=0.080920827018202579 0.0081151533933637669 -0.043095513895759913 -0.038949909650615989 0.060583870861913358 0.086111414830437619 0.082981358279848927 -0.042960686549101026 0.080081914785044478 0.080481074500607402 -0.043953652845039631 -0.043939927177029131 0.080633590614299547 0.080090251497435205 -0.04314496727477167 -0.043293629333012562 -0.042867587584489199 -0.043327487264824695 0.080338415249409365 -0.043318948010534528 0.080789325416592464 0.08030913874302914 -0.043355370436628543 -0.043634517236983611 -0.043310194912355077 -0.043482201426037662 -0.0429065680032793 -0.042797820071083861 -0.043022933671174074 -0.042879097645491401 -0.042849190566257515
leaf_weight=9.8108094930648786 6.5041865408420589 9.7210352420806903 10.122649639844893 9.9844160974025709 8.176500737667082 7.9281602501869193 6.7775713801383954 125.37987625598907 9.098589241504671 6.3118962645530692 6.0377893149852744 8.0023205578327161 22.232355147600178 8.4240309596061689 9.2888945639133471 7.5219964087009421 126.70348474383354 7.6469084322452536 5.849583625793457 7.6342218518257132 7.2834746539592734 6.3943603038787833 6.7553190886974317 7.7061519920825958 9.1157253980636579 21.056672900915146 11.623287469148638 5.4943982362747219 11.160920739173887 135.00987741351128
leaf_count=27 22 37 37 28 23 22 26 344 25 23 22 22 61 32 35 29 476 21 22 21 20 24 25 29 34 81 45 21 43 521
internal_value=0.000229412 -0.0422161 -0.0205387 0.0796477 0.0805405 0.0803183 -0.043115 0.0802112 0.080174 -0.0433758 -0.0433542 0.0803637 0.0802486 -0.0429125 -0.0428905 -0.043103 -0.0433325 0.0800967 -0.0431267 0.0806217 0.0801443 -0.0431986 -0.0433498 -0.0434617 -0.0433379 -0.042872 -0.0429359 -0.0428736 -0.0429265 -0.0428569
internal_weight=640.757 417.58 16.6268 223.178 213.193 205.017 400.953 197.089 187.278 175.258 168.946 54.251 37.5182 225.695 209.58 16.8109 162.908 133.027 12.6272 16.7328 29.5158 16.1154 150.281 14.4615 135.819 192.769 36.7026 28.2786 16.6553 156.067
internal_count=2198 1584 59 614 586 563 1525 541 514 657 634 149 103 868 807 64 612 365 48 46 81 61 564 54 510 743 141 109 64 602
is_linear=0
shrinkage=0.05


Tree=15
num_leaves=31
num_cat=0
split_feature=8 1 8 5 5 5 5 8 1 5 1 8 7 4 5 5 1 7 5 8 1 5 5 7 6 5 1 5 8 8
split_gain=532.91 139.703 16.7801 11.4682 21.6404 11.3445 16.9638 10.4451 8.50433 7.8181 6.31869 7.04212 4.87622 1.85288 0.53188 0.470982 0.458257 0.299909 0.57897 0.306212 0.571968 0.263894 0.148444 0.0377241 0.0085468 0.00374535 0.00229665 0.00217339 0.00117785 0.00265309
threshold=0.22501162250116227 1.0083333333333335 0.12831241283124131 1.5422211061992206 -1.2149326416049164 0.98947322871679744 -1.2149326416049164 0.32543003254300334 0.17500000000000002 1.1743817951621749 0.59166666666666679 -0.28916782891678283 0.34574468085106386 -0.089227421109901991 -0.98044874899776191 1.358894458172953 0.45833333333333343 0.43936170212765963 1.7235767063893102 0.061366806136680621 0.20833333333333337 0.44027831748966278 0.80496056570601893 -0.76063829787234039 -0.77502394382984729 3.2662224623386469 1.8916666666666668 1.1743817951621749 -0.19525801952580193 -0.16364481636448161
decision_type=2 2 2 2 2 2 2 2 2 2 2 2 2 2 2 2 2 2 2 2 2 2 2 2 2 2 2 2 2 2
left_child=1 2 10 4 -4 6 -3 8 9 13 17 -12 -6 -2 -9 27 -10 19 -19 24 -21 23 -18 -8 -1 28 -25 -16 -26 -30
right_child=7 5 3 -5 12 -7 21 14 16 -11 11 -13 -14 -15 15 -17 22 18 -20 20 -22 -23 -24 26 25 -27 -28 -29 29 -31
leaf_value=-0.050946055378955052 0.015696661041840029 -0.018741566191650499 -0.050718941869769385 -0.052530158713058543 0.064222365521639471 -0.005994133541564888 0.062622246396098577 0.04752393822068092 0.043251119284235473 -0.024600552186850512 -0.047335431938176249 0.0095960151702655146 0.010362626709534415 0.051109942559477477 0.058013483836114155 0.047506825739784944 0.053091322653546713 -0.031565322995828447 -0.049780983786170241 -0.05093986778724037 -0.0316527771674927 0.049816625685911324 0.062981168636176962 0.058992843136836948 -0.049513007175241333 -0.050675289578033703 0.058065928402908078 0.058814159348619215 -0.050677882500012643 -0.049637750778565581
leaf_weight=12.11028543114662 7.357241302728653 8.7467466294765455 10.782288789749147 12.808245271444319 9.2947020828723925 13.861447155475615 7.4420847892761151 14.056116849184034 7.7627716064453152 9.534422814846037 11.849195778369905 10.029160529375075 7.670321822166442 7.4175925552845019 212.28550383448601 11.135637015104292 7.3678840398788434 7.1121775805950191 11.281834095716475 8.7490317523479444 6.8563512265682212 8.8890563547611219 7.8226664960384369 16.21283581852914 234.60595539212227 7.7574506402015677 11.368866473436354 8.8279407024383527 7.0151022076606742 48.633216619491577
leaf_count=36 20 25 32 37 25 38 20 38 21 26 35 28 21 20 579 30 20 21 34 26 20 24 21 44 711 23 31 24 21 147
internal_value=-8.17728e-05 -0.0329207 -0.0439114 -0.0133958 0.00466878 0.0342513 0.044845 0.0528372 0.0313069 0.0106974 -0.0472928 -0.0212377 0.039871 0.0334756 0.0569686 0.0575402 0.0531339 -0.0489493 -0.0427378 -0.0493001 -0.0424659 0.0575105 0.0581843 0.0594632 -0.049644 -0.049591 0.0586108 0.0580455 -0.0495621 -0.0497689
internal_weight=766.644 473.076 406.555 40.5556 27.7473 66.521 52.6596 293.568 47.2626 24.3093 366 21.8784 16.965 14.7748 246.305 232.249 22.9533 344.121 18.394 325.727 15.6054 43.9128 15.1906 35.0238 310.122 298.012 27.5817 221.113 290.254 55.6483
internal_count=2198 1399 1217 115 78 182 144 799 128 66 1102 63 46 40 671 633 62 1039 55 984 46 119 41 95 938 902 75 603 879 168
is_linear=0
shrinkage=0.05


Tree=16
num_leaves=31
num_cat=0
split_feature=5 0 2 5 2 5 1 7 5 0 2 1 5 0 7 1 5 5 5 1 6 7 0 5 7 2 5 4 1 2
split_gain=701.384 24.8312 14.4343 13.4356 12.2125 5.43549 2.86908 1.44777 0.491684 0.947885 0.386306 0.0994539 0.0576086 0.0599117 0.0473148 0.0335265 0.00951557 0.00724755 0.0027889 0.00290737 0.00391561 0.00238715 0.00111705 0.000783061 0.000651322 0.000524344 0.000412352 0.000394788 0.000340321 0.000167956
threshold=1.358894458172953 0.50288354166082716 0.42375601926163731 1.1743817951621749 -0.28250401284109145 1.5422211061992206 1.0750000000000002 -0.85851063829787222 0.98947322871679744 0.34717902754960267 0.71268057784911731 0.32500000000000001 3.2662224623386469 0.42232486414383913 0.22659574468085109 0.57500000000000007 1.9021846662209885 -0.98044874899776191 -1.2149326416049164 0.40833333333333338 1.325146665349036 -0.74361702127659568 0.39876760746711543 2.0772801589898644 0.26702127659574476 -0.26324237560192615 -1.3176623369522955 -0.43743199129488569 1.1583333333333334 -0.39807383627608345
decision_type=2 2 2 2 2 2 2 2 2 2 2 2 2 2 2 2 2 2 2 2 2 2 2 2 2 2 2 2 2 2
left_child=3 5 -3 7 -5 -2 10 -1 17 -10 11 12 13 16 15 -13 -7 18 22 20 -20 -19 26 -18 25 -23 -9 -25 -21 -26
right_child=1 2 -4 4 -6 6 -8 8 9 -11 -12 14 -14 -15 -16 -17 23 21 19 28 -22 24 -24 27 29 -27 -28 -29 -30 -31
leaf_value=-0.021850095821023756 0.035780934194493359 0.050351569934937106 -0.044185593647582483 0.052740139139738212 -0.033802418488907408 0.074866118958563987 0.041190175994050907 -0.043020127679108601 -0.017092802085534035 -0.043084752021069095 0.062466877329425435 0.073630158520937322 0.077968130319887793 0.07805205207394833 0.080746122243439744 0.078174989640259762 0.073808232320149311 -0.04361626946558203 -0.043115693965061347 -0.043137497082395428 -0.044504395459639086 -0.043059883808895055 -0.042383254538424397 0.073757959985995478 -0.042688726950425825 -0.042641787846631883 -0.042659655129978262 0.073383716547711073 -0.042589146700649269 -0.042478618617701719
leaf_weight=8.726385682821272 10.309558182954786 8.8914813399314898 7.3963826894760123 7.2421621680259731 9.325760602951048 12.574326306581495 6.9058091342449179 131.88896743953228 5.5098429024219504 9.6528243124484998 7.1092872619628897 8.1760586202144676 8.4343681931495649 7.7004552483558646 7.2410086989402762 8.0561062991619092 13.001090586185454 5.6330924928188315 9.7229571640491521 5.2641221284866315 10.620640397071838 8.8761188387870771 7.7885219752788535 7.4305491745471945 10.515911400318144 48.335037589073181 8.4412396103143674 136.47173994779587 6.1180168241262436 99.585064560174942
leaf_count=31 31 27 27 22 34 34 20 504 20 37 20 22 23 21 20 22 35 21 37 20 38 34 31 20 41 189 33 367 24 393
internal_value=0.00157326 0.0671101 0.00742187 -0.0400404 0.00402702 0.0712753 0.0729155 -0.0419787 -0.0424561 -0.0336397 0.0739289 0.0743186 0.0739309 0.0737387 0.0773851 0.0758858 0.0735427 -0.042835 -0.0430572 -0.0434827 -0.0438407 -0.0426039 -0.0429661 0.0734366 -0.0425698 -0.0427067 -0.0429984 0.073403 -0.0428428 -0.0424987
internal_weight=642.945 249.698 16.2879 393.247 16.5679 233.41 223.101 376.679 367.952 15.1627 216.195 209.086 185.613 177.178 23.4732 16.2322 169.478 352.79 179.844 31.7257 20.3436 172.945 148.119 156.903 167.312 57.2112 140.33 143.902 11.3821 110.101
internal_count=2198 689 54 1509 56 635 604 1453 1422 57 584 564 500 477 64 44 456 1365 687 119 75 678 568 422 657 223 537 387 44 434
is_linear=0
shrinkage=0.05


Tree=17
num_leaves=31
num_cat=0
split_feature=5 1 5 7 0 5 5 7 1 5 5 5 7 1 1 2 2 0 1 2 4 7 1 2 1 1 7 2 7 7
split_gain=761.804 2.27951 1.73454 2.17744 0.107676 0.0271038 0.00781648 0.00145788 0.00140301 0.00101501 0.000810548 0.000602141 0.000421791 0.000390337 0.000525798 0.00066739 0.000384187 0.000146141 0.000132047 0.00012335 0.000100892 9.45867e-05 0.000104191 0.000175623 6.48848e-05 5.92657e-05 5.33666e-05 0.000123036 6.99257e-05 3.40161e-05
threshold=-1.2149326416049164 1.0250000000000001 -1.1023674384596742 -0.075531914893617005 0.4079150038494867 -1.3176623369522955 1.5422211061992206 -0.8521276595744679 -0.1583333333333333 -0.98044874899776191 3.2662224623386469 1.1743817951621749 -0.69255319148936156 0.39166666666666677 -0.09166666666666666 -0.012841091492776886 -0.36597110754414125 0.52869879012338161 0.67500000000000016 -0.070626003210272861 0.63329706202393921 0.23936170212765959 0.97500000000000009 0.19903691813804175 1.6750000000000003 -1.0083333333333331 0.5414893617021278 0.38523274478330666 0.45000000000000001 0.26702127659574476
decision_type=2 2 2 2 2 2 2 2 2 2 2 2 2 2 2 2 2 2 2 2 2 2 2 2 2 2 2 2 2 2
left_child=1 4 3 -2 5 7 9 -1 25 19 18 12 24 14 -10 -16 -13 -18 26 -4 -20 22 23 -14 -11 -9 28 -28 29 -8
right_child=2 -3 6 -5 -6 -7 10 8 13 11 -12 16 21 -15 15 -17 17 -19 20 -21 -22 -23 -24 -25 -26 -27 27 -29 -30 -31
leaf_value=0.075118207110503626 -0.0070992641041920344 0.049298802587932233 -0.042874626534295003 -0.043861342817207404 0.080653320459491543 0.077188791818484023 -0.042692533505265501 0.074598581139426953 0.075040331828143417 -0.04266327940716777 -0.043304533242820603 -0.042746609890823115 -0.042587268766398935 0.075048230242026837 0.074992472075907687 0.074459848449287463 -0.042488259489065719 -0.042220094844990591 -0.043009313482484206 -0.042576301055648497 -0.042720706641904339 -0.04218201793148646 -0.04220453846626146 -0.042262600938375354 -0.042410608343186336 0.074464821324486105 -0.042648606680817665 -0.042985652052569601 -0.042529928701088043 -0.04276579022823955
leaf_weight=12.588303446769713 7.9453549385070827 9.0265307128429395 5.1849481314420709 8.1696737706661207 7.9917381107807151 10.661414593458174 108.3402354568243 8.8981885910034162 9.2564233839511854 5.1203335970640165 6.1079253852367392 8.7439703345298785 5.601874232292178 11.109156936407087 8.1482144594192487 21.140737950801853 9.8751022070646304 10.464086771011351 6.5300535857677442 10.445252612233158 5.6468180269002914 121.08396142721176 32.366178661584854 16.241980910301208 5.0434865802526474 119.42564192414284 5.6321966946125013 5.2145271748304367 6.0991299897432318 18.561189502477646
leaf_count=34 28 25 20 30 22 29 422 24 25 20 23 34 22 30 22 57 39 42 25 41 22 487 130 65 20 322 22 20 24 72
internal_value=-0.0015141 0.0739001 -0.0418132 -0.0257362 0.0749615 0.0747355 -0.0424736 0.0745982 0.0745614 -0.0422863 -0.0427395 -0.0422579 -0.0422248 0.0747871 0.0747118 0.074608 -0.0424694 -0.0423503 -0.0427174 -0.0426753 -0.0428755 -0.0422066 -0.0422615 -0.0423459 -0.0425379 0.0744741 -0.042704 -0.0428106 -0.0426953 -0.0427032
internal_weight=626.665 218.246 408.418 16.115 209.22 201.228 392.303 190.567 177.978 230.171 162.132 214.541 185.458 49.6545 38.5454 29.289 29.0832 20.3392 156.024 15.6302 12.1769 175.294 54.21 21.8439 10.1638 128.324 143.847 10.8467 133.001 126.901
internal_count=2198 590 1608 58 565 543 1550 514 480 920 630 859 744 134 104 79 115 81 607 61 47 704 217 87 40 346 560 42 518 494
is_linear=0
shrinkage=0.05


Tree=18
num_leaves=31
num_cat=0
split_feature=8 1 8 8 8 1 1 4 1 8 1 6 6 1 1 6 6 8 7 3 8 1 7 2 3 7 7 6 8 4
split_gain=483.405 127.974 15.7081 10.962 9.68271 8.43482 7.90544 7.03914 6.02238 6.57659 3.99682 3.64201 2.29635 1.72158 0.741133 0.629243 0.518401 0.348303 0.293253 0.562036 0.300413 0.551299 0.129875 0.0926881 0.105107 0.0885674 0.0831258 0.00876617 0.00870831 0.0129544
threshold=0.22501162250116227 1.0083333333333335 0.12831241283124131 -0.51324965132496503 0.32543003254300334 -0.058333333333333327 0.15833333333333335 0.02829162132752994 0.59166666666666679 -0.28916782891678283 1.5250000000000001 0.68464606370356551 1.325146665349036 1.4416666666666669 0.4250000000000001 1.325146665349036 0.99507711189693226 -0.25104602510460244 0.43936170212765963 0.10625000000000286 0.061366806136680621 0.20833333333333337 -0.23085106382978721 -0.46227929373996784 0.96875000000000722 -0.34361702127659571 0.11595744680851065 -0.77502394382984729 0.37935843793584384 -0.076169749727965155
decision_type=2 2 2 2 2 2 2 2 2 2 2 2 2 2 2 2 2 2 2 2 2 2 2 2 2 2 2 2 2 2
left_child=1 2 8 10 6 15 11 -7 18 -10 -3 -2 13 -5 -8 -4 23 -15 20 -20 27 -22 -19 -6 25 -25 -16 -1 29 -27
right_child=4 3 5 12 16 7 14 -9 9 -11 -12 -13 -14 17 26 -17 -18 22 19 -21 21 -23 -24 24 -26 28 -28 -29 -30 -31
leaf_value=-0.049641427395369093 -0.013524417279155654 -0.02535772122810186 -0.051954804207123652 0.032219718818769609 0.049643113221238142 -0.021535220936344801 0.037347554122979389 0.031910046536992039 -0.046008910796125707 0.0094099966358669723 0.024442256461555231 0.02674029462053501 0.020785244403002334 0.047919059910622765 0.051950671765241131 -0.031589897880434196 0.045264245764316709 0.056220529025629011 -0.030614749921359583 -0.048668933953156517 -0.049571562048244623 -0.030417556553868581 0.064580703526554054 0.050849561899941845 0.049608935227353074 0.058482084457038203 0.059163878537117812 -0.048249833518397345 0.055711417225512774 0.055759255240198716
leaf_weight=11.778381198644636 10.21613994240761 8.9324410855770129 7.8722684979438764 10.832966417074202 7.2478776574134818 12.304346084594728 8.0974239706993121 12.339138269424437 11.548307955265047 9.9793967306613904 7.3394619524478903 12.472511261701582 8.5173283815383893 10.160979032516478 7.3143110871315029 7.3201638162136078 13.908317178487776 12.665081590414045 7.2296026945114162 10.676865339279173 8.5007350444793683 6.7315876781940451 7.3365515768528047 9.3999954462051374 7.5942029953002921 7.3282288610935238 8.7988657951354963 288.79694893956184 185.97725290060043 10.815273523330687
leaf_count=36 28 25 23 30 20 36 22 34 35 28 20 34 24 28 20 22 38 35 22 33 26 20 20 26 21 20 24 902 516 30
internal_value=-6.44354e-05 -0.0318607 -0.0426122 0.0327081 0.0506106 -0.0128397 0.0298156 0.00522514 -0.0459508 -0.0203189 -0.00289538 0.00861009 0.0444089 0.049317 0.049688 -0.0421424 0.0546361 0.0554575 -0.0476043 -0.0413797 -0.0479572 -0.0411069 0.059287 0.0552069 0.0553893 0.0555949 0.0558896 -0.0483044 0.0558134 0.056859
internal_weight=750.033 460.863 395.078 65.7848 289.17 39.8359 46.8993 24.6435 355.242 21.5277 16.2719 22.6887 49.5129 40.9956 24.2106 15.1924 242.271 30.1626 333.714 17.9065 315.808 15.2323 20.0016 228.363 221.115 213.521 16.1132 300.575 204.121 18.1435
internal_count=2198 1399 1217 182 799 115 128 70 1102 63 45 62 137 113 66 45 671 83 1039 55 984 46 55 633 613 592 44 938 566 50
is_linear=0
shrinkage=0.05


Tree=19
num_leaves=31
num_cat=0
split_feature=2 6 1 0 6 0 1 0 7 6 1 1 7 6 1 7 2 0 6 0 1 1 2 7 4 1 7 7 1 2
split_gain=188.223 74.9341 116.632 48.5019 33.6195 29.7247 29.7081 21.5895 18.4653 13.7269 12.958 10.6904 9.62904 8.53578 6.92527 3.42684 1.89894 1.86027 1.81215 1.67343 2.08245 1.59798 1.67579 0.478795 0.416067 0.404654 0.773982 0.395336 0.388866 0.368595
threshold=-0.44301765650080255 1.6734413155587957 -0.20833333333333331 0.49277174932666351 -0.23195432038290284 0.49277174932666351 0.29166666666666669 0.63639752110985093 -0.59893617021276591 -0.90253177250603445 1.8083333333333336 0.80833333333333346 0.43936170212765963 -1.0380512414368477 -0.041666666666666664 -0.74787234042553175 -0.4943820224719101 0.14764624877983765 -0.77502394382984729 0.53280310113522444 0.4250000000000001 -1.0083333333333331 0.012841091492776889 0.43936170212765963 -0.48095756256800865 -0.041666666666666664 0.74148936170212776 -0.33297872340425522 0.058333333333333341 -0.19261637239165327
decision_type=2 2 2 2 2 2 2 2 2 2 2 2 2 2 2 2 2 2 2 2 2 2 2 2 2 2 2 2 2 2
left_child=7 2 5 4 6 24 9 16 10 -4 29 12 13 -10 -6 -16 -1 -15 -18 20 -5 22 -3 -11 -2 26 -21 -13 -17 -8
right_child=1 21 3 19 14 -7 8 -9 11 23 -12 27 -14 17 15 28 18 -19 -20 25 -22 -23 -24 -25 -26 -27 -28 -29 -30 -31
leaf_value=0.06930696102920969 0.056350925421424183 -0.042645357781185778 -0.00085966964591886969 -0.0013817723785286621 0.01173256476173047 -0.024434368604588749 0.072453358714556021 -0.02274101196848391 -0.020061978031557296 0.070255839862656058 -0.025237014689952125 -0.029619877160270015 -0.037410244051366094 0.027526332501895276 0.00060915060569791298 -0.02851135277050661 0.02937647884123408 0.064977460953424812 0.066043104154399512 -0.018496305125486931 -0.043382099730084722 -0.042345355080322597 -0.0037269114715470508 0.055480658708729175 0.069066465409857933 -0.041589656076506734 -0.042093663151599688 -0.043378489804703664 -0.042234203798088427 0.056612594077182103
leaf_weight=89.598579198122025 7.2070436775684348 5.3725446760654432 9.5642684996128065 6.461682662367819 9.2496446222066862 10.066621989011763 7.7298505902290353 7.2248100489377967 7.1446412950754192 26.124502211809158 5.4630888253450385 7.3850554972887066 9.2554462105035764 6.167067155241968 5.8043310344219199 5.9992811232805243 6.2207187414169312 7.171738401055336 7.3524943590164167 5.8231057673692694 5.4324770420789719 138.86223766207695 5.7010836005210876 6.9395591020584098 59.922325432300568 90.689956605434418 8.6171766072511655 17.817658498883247 37.007348477840424 6.9958873689174661
leaf_count=241 20 21 34 22 31 38 22 28 24 70 21 29 37 20 20 23 20 20 20 22 21 553 20 20 160 368 35 69 149 20
internal_value=0.00152015 -0.0110689 0.0010133 -0.013399 0.00320207 0.0556865 0.0185545 0.0608156 -0.000362525 0.0518948 0.0405292 -0.0153886 0.00491525 0.02404 -0.0279357 -0.0354529 0.0666668 0.0476623 0.0492385 -0.0383407 -0.0205648 -0.0408877 -0.0226088 0.0671548 0.0677013 -0.0403518 -0.0325779 -0.0393469 -0.0403199 0.0649277
internal_weight=630.372 519.976 370.04 292.844 175.819 77.196 117.759 110.397 75.1304 42.6283 20.1888 54.9416 29.7389 20.4834 58.0606 48.811 103.172 13.3388 13.5732 117.024 11.8942 149.936 11.0736 33.0641 67.1294 105.13 14.4403 25.2027 43.0066 14.7257
internal_count=2198 1889 1295 1077 609 218 386 309 262 124 63 199 101 64 223 192 281 40 40 468 43 594 41 90 180 425 57 98 172 42
is_linear=0
shrinkage=0.05


Tree=20
num_leaves=31
num_cat=0
split_feature=5 1 5 2 8 8 8 2 8 1 1 5 5 5 8 1 2 4 5 1 8 1 5 4 5 3 3 8 3 8
split_gain=689.15 2.04603 1.71577 2.14494 0.158754 0.00940808 0.00928767 0.00566432 0.00224414 0.00141831 0.00135517 0.000717785 0.000675795 0.000667561 0.00036699 0.000282599 0.000292947 0.000276347 0.000339374 0.000201469 0.000194803 0.000633274 0.000137971 9.9142e-05 9.26368e-05 7.9477e-05 7.84877e-05 5.80243e-05 2.92318e-05 2.41143e-05
threshold=-1.2149326416049164 1.0250000000000001 -1.1023674384596742 -0.14125200642054572 0.19525801952580199 0.039051603905160402 0.31613203161320319 0.24398073836276088 -1.1046025104602508 0.45833333333333343 0.97500000000000009 1.358894458172953 3.2662224623386469 -0.98044874899776191 -0.59507205950720576 -0.1583333333333333 -0.0064205457463884412 0.019586507072905379 1.7235767063893102 0.20833333333333337 0.19525801952580199 0.058333333333333341 1.358894458172953 -0.45484221980413481 1.358894458172953 0.2937500000000029 -0.068750000000001407 -1.0488145048814503 0.83125000000000437 0.09483960948396096
decision_type=2 2 2 2 2 2 2 2 2 2 2 2 2 2 2 2 2 2 2 2 2 2 2 2 2 2 2 2 2 2
left_child=1 4 3 -2 5 8 10 -7 -1 15 12 14 17 -8 -12 27 -17 18 19 -4 22 -22 -19 -18 -15 -20 -16 -10 -29 -24
right_child=2 -3 6 -5 -6 7 13 -9 9 -11 11 -13 -14 24 26 16 23 20 25 -21 21 -23 29 -25 -26 -27 -28 28 -30 -31
leaf_value=0.070659168729927446 -0.00026464055390220184 0.046133264501226873 -0.04269110231522865 -0.038727500471014836 0.077164994840832307 0.071644934824747514 -0.04205254757487175 0.070126395265093164 0.069881604470525077 0.070434081349321706 -0.042106986237353622 -0.042223621069576708 -0.042668812939670273 -0.041549068749149404 -0.04172786933382773 0.07012483785169113 0.069952583134500548 -0.042363659713992863 -0.042119211928028845 -0.042255185216980996 -0.042347865317504126 -0.041659428017524078 -0.042089590355078622 0.069735607937617961 -0.041726949751288316 -0.042309290700790814 -0.041556582928262586 0.069758905317425887 0.069858876603128311 -0.042195172788610139
leaf_weight=8.9709589481353742 5.621809408068656 9.1464308202266675 5.3790627866983396 10.20349398255348 8.0717535316944105 13.053860485553743 7.1446014195680609 11.596152573823927 11.974395990371702 9.7207626104354841 4.943846836686137 8.7058742940425855 5.8891442418098441 144.90793980658054 12.769831955432894 13.092872053384779 8.9799667000770551 5.0220526605844489 29.459913209080696 5.2254655212163925 5.2754549980163565 9.1070324927568418 98.844590350985527 12.725303024053575 7.7085709869861594 6.7616017609834662 14.042544320225714 105.16789808869362 7.8585366904735556 5.7209458053112021
leaf_count=24 20 25 21 38 22 35 29 31 32 26 20 35 23 609 53 35 24 20 119 21 21 38 400 34 32 27 59 281 21 23
internal_value=-0.00148417 0.0692856 -0.0411923 -0.0250639 0.0702882 0.0700149 -0.0418695 0.0709306 0.0698885 0.0698477 -0.0420824 -0.0418214 -0.0421422 -0.0415802 -0.0417111 0.069812 0.069938 -0.042124 -0.0422275 -0.0424763 -0.042085 -0.0419119 -0.0421077 0.0698254 -0.0415581 -0.0421547 -0.0416382 0.0697769 0.0697659 -0.0420954
internal_weight=613.093 220.359 392.734 15.8253 211.212 203.141 376.908 24.65 178.491 169.52 217.147 40.4621 176.685 159.761 31.7562 159.799 34.7981 170.796 46.826 10.6045 123.97 14.3825 109.588 21.7053 152.617 36.2215 26.8124 125.001 113.026 104.566
internal_count=2198 590 1608 58 565 543 1550 66 477 453 880 167 713 670 132 427 93 690 188 42 502 59 443 58 641 146 112 334 302 423
is_linear=0
shrinkage=0.05


Tree=21
num_leaves=31
num_cat=0
split_feature=1 5 5 0 2 5 4 5 7 1 2 7 2 2 4 7 3 0 0 5 7 7 5 3 4 4 4 1 5 0
split_gain=256.002 139.36 198.098 45.0767 9.59901 8.89663 19.2406 8.4232 3.57823 2.83493 1.94471 1.7442 0.725508 0.224505 0.178724 0.172451 0.0959122 0.0637357 0.0456033 0.0450516 0.0370148 0.109401 0.0796619 0.0653002 0.0616161 0.0262383 0.0202182 0.0125244 0.0115929 0.00881475
threshold=-0.19166666666666662 1.5422211061992206 -1.2149326416049164 0.51883764645897434 0.80256821829855551 1.1743817951621749 0.72034820457018511 0.98947322871679744 0.43085106382978727 1.0250000000000001 -0.19261637239165327 -0.8180851063829786 -0.28250401284109145 -0.44943820224719094 -0.13710554951033724 0.24787234042553194 1.1687500000000031 0.41640810479869578 0.34149123706466383 1.9021846662209885 -0.677659574468085 -0.57340425531914885 -0.98044874899776191 -0.24374999999999855 0.1240478781284005 0.57671381936887933 -0.1240478781284004 0.54166666666666685 -1.3176623369522955 0.5983560385315031
decision_type=2 2 2 2 2 2 2 2 2 2 2 2 2 2 2 2 2 2 2 2 2 2 2 2 2 2 2 2 2 2
left_child=3 2 9 16 8 11 10 12 14 18 -7 -4 -5 -13 -3 -12 17 -1 28 25 -15 -22 23 24 -23 -16 -25 -21 -2 -24
right_child=1 4 5 7 -6 6 -8 -9 -10 -11 15 13 -14 20 19 -17 -18 -19 -20 27 21 22 29 26 -26 -27 -28 -29 -30 -31
leaf_value=-0.047044418557764922 -0.047304841948864626 -0.041909170660090575 0.029871611160012791 0.05526626695567384 0.018234836251780778 0.025093255121507341 -0.042877559464908135 -0.016380026495379178 -0.017254184721793905 -0.017446516585370553 0.047890642702656673 0.045828156087255489 0.033925053244110236 0.056988434287864959 -0.052829137045247221 0.057449394080275287 -0.040618810449624697 -0.042013203384295317 -0.051717877313332418 -0.047144512458181437 0.048234513868797721 0.057242692099691288 0.054211677726317936 0.057165365282043024 0.051000002168428572 -0.049003887378591966 0.060882417406580652 -0.049584063605699683 -0.049566770761297521 0.053582487255851144
leaf_weight=221.90551599860191 43.958296418190002 11.863536685705183 7.7431237101554862 8.9289934933185595 7.0600813329219809 8.0498203337192553 7.743927299976348 8.2471896111965162 11.621468931436537 8.6368057727813703 7.301630616188052 8.3031337261199933 7.1885136067867306 11.203614979982374 8.146919250488283 13.337595432996748 6.2402543425559989 6.4785017967224112 7.7409861385822287 26.702526658773422 7.8349941968917838 8.7209950089454669 114.19272127747536 7.2606252431869507 7.2292081713676444 9.9675418138504011 7.3736765980720502 6.552025079727172 6.5026142895221701 108.60906720161438
leaf_count=717 141 37 21 25 20 22 22 23 34 25 20 23 20 31 24 37 20 20 23 86 22 24 322 20 20 31 20 20 20 308
internal_value=-4.24151e-05 0.0218127 0.0342146 -0.0400126 -0.0374974 0.0503413 0.0270599 0.0247183 -0.042754 -0.0441777 0.0459378 0.0532817 0.0457479 0.0539274 -0.0474406 0.0540678 -0.0467346 -0.0469017 -0.0481445 -0.048718 0.0541742 0.0540535 0.0542334 0.0566263 0.0544133 -0.0507243 0.0590382 -0.0476252 -0.0475963 0.053905
internal_weight=732.646 473.657 391.743 258.989 81.9141 324.904 36.433 24.3647 74.854 66.8387 28.689 288.471 16.1175 280.728 63.2325 20.6392 234.624 228.384 58.2019 51.369 272.425 261.221 253.386 30.5845 15.9502 18.1145 14.6343 33.2546 50.4609 222.802
internal_count=2198 1373 1121 825 252 912 101 68 232 209 79 811 45 790 198 57 757 737 184 161 767 736 714 84 44 55 40 106 161 630
is_linear=0
shrinkage=0.05


Tree=22
num_leaves=31
num_cat=0
split_feature=5 8 5 2 1 3 7 5 5 7 8 1 5 2 8 8 5 1 8 2 8 1 2 8 1 5 6 7 2 1
split_gain=580.349 27.9613 12.7328 10.4801 5.94152 4.85309 1.4162 1.37872 0.478978 0.926033 0.266655 0.144651 0.0500818 0.0174273 0.0111124 0.00884174 0.0051682 0.0109673 0.00779241 0.00408442 0.0031815 0.00138919 0.00150382 0.00121777 0.00105498 0.000747673 0.000543875 0.000467197 0.000448452 0.000328849
threshold=1.358894458172953 0.25104602510460255 1.1743817951621749 -0.28250401284109145 1.2416666666666669 0.043750000000002849 -0.85851063829787222 1.5422211061992206 0.98947322871679744 0.45425531914893619 0.12831241283124131 0.65833333333333344 3.2662224623386469 0.42375601926163731 0.31613203161320319 0.068805206880520706 -1.2149326416049164 0.35833333333333334 0.22501162250116227 0.52648475120385252 -0.46304044630404456 -0.19166666666666662 0.15409309791332268 0.18410041841004185 0.97500000000000009 -0.98044874899776191 -0.8387778581679407 0.43085106382978727 -0.41733547351524874 -1.0416666666666665
decision_type=2 2 2 2 2 2 2 2 2 2 2 2 2 2 2 2 2 2 2 2 2 2 2 2 2 2 2 2 2 2
left_child=2 4 6 -4 7 -3 -1 -2 14 -10 11 12 15 -12 16 19 23 18 -18 21 -19 27 -23 29 -22 -16 -26 -9 -27 -8
right_child=1 5 3 -5 -6 -7 8 10 9 -11 13 -13 -14 -15 25 -17 17 20 -20 -21 24 22 -24 -25 26 28 -28 -29 -30 -31
leaf_value=-0.020505344804802615 0.046917835647965936 -0.032300589104668473 0.048464766853355018 -0.032292817115912142 0.018817314590389551 0.02617794342304593 -0.042141837680333444 0.064986325171780684 -0.015775741749154932 -0.042089371473806925 0.074335771082326169 0.071271355927604405 0.069149823629909304 0.070951013743181635 -0.041735122352594231 0.066741409152576522 -0.044863869473849773 -0.043004792773723946 -0.042476075738457186 0.066027245288540523 -0.042195401603740676 0.065139084432058583 0.065781234593052365 -0.040951275108134004 -0.041983142872404115 -0.041702360512281433 -0.041422380003334244 0.065376092749809128 -0.041275631551083519 -0.041768669262931324
leaf_weight=8.4069957435131055 9.6675517261028272 8.3530047088861448 7.3922397792339352 8.7994639724493009 7.0553437471389762 6.1673748344182959 6.1958869099616996 113.54891756176947 5.3141051679849616 9.0165814608335477 7.3903636634349805 11.160214573144911 8.5906751155853254 7.83419468998909 10.558275535702704 9.3700212538242322 6.2228116393089277 5.6650590598583213 7.5772968381643295 12.745495170354841 8.6672533303499204 28.108460605144515 13.494158595800398 4.5166707932949057 5.6327394992113105 6.4863164126873007 18.609243005514148 8.2466470003128034 121.17328026890755 125.2073297649622
leaf_count=31 27 31 22 34 21 21 25 303 20 37 20 30 23 21 44 25 22 22 30 34 35 75 36 20 23 27 79 22 520 518
internal_value=0.0014723 0.0598908 -0.0387689 0.00457665 0.0640136 -0.00746246 -0.0407785 0.0653991 -0.0412785 -0.0323318 0.0662094 0.0657359 0.0654176 0.0725941 -0.0416712 0.0652448 -0.0419211 -0.0423431 -0.0435528 0.0651652 -0.0419103 0.0650979 0.0653474 -0.0417585 -0.0417219 -0.0413308 -0.0415527 0.0650127 -0.0412973 -0.0417863
internal_weight=617.174 251.732 365.442 16.1917 237.212 14.5204 349.25 230.157 340.843 14.3307 220.489 205.265 194.104 15.2246 326.512 185.514 188.294 52.3744 13.8001 176.144 38.5743 163.398 41.6026 135.92 32.9092 138.218 24.242 121.796 127.66 131.403
internal_count=2198 689 1509 56 637 52 1453 616 1422 57 589 548 518 41 1365 495 774 211 52 470 159 436 111 563 137 591 102 325 547 543
is_linear=0
shrinkage=0.05


Tree=23
num_leaves=31
num_cat=0
split_feature=5 1 5 7 8 0 8 0 8 1 1 5 5 5 8 7 8 8 8 5 1 0 1 8 2 1 8 1 5 0
split_gain=626.942 1.78258 1.69118 2.15853 0.188005 0.0161857 0.0114511 0.00292228 0.00273701 0.00166523 0.00157595 0.000768103 0.000598383 0.000595144 0.000590988 0.000535463 0.000589323 0.000493276 0.000399772 0.0010574 0.000449982 0.000184472 0.000147125 0.000189627 0.000159313 0.000121595 0.000108233 8.9054e-05 7.604e-05 7.453e-05
threshold=-1.2149326416049164 1.0250000000000001 -1.1023674384596742 -0.075531914893617005 0.19525801952580199 0.29440787192868884 0.32543003254300334 0.37677491376611916 -1.1046025104602508 0.4250000000000001 0.97500000000000009 3.2662224623386469 -0.98044874899776191 1.358894458172953 0.061366806136680621 0.5414893617021278 0.25104602510460255 -0.59507205950720576 0.19525801952580199 1.358894458172953 0.17500000000000002 0.3873540512731965 -0.1583333333333333 -1.0488145048814503 -0.0064205457463884412 0.65833333333333344 0.14132961413296144 1.6416666666666668 1.358894458172953 0.4517379247499092
decision_type=2 2 2 2 2 2 2 2 2 2 2 2 2 2 2 2 2 2 2 2 2 2 2 2 2 2 2 2 2 2
left_child=1 4 3 -2 5 8 10 -7 -1 14 11 15 -8 17 22 18 26 -12 19 -4 -20 25 23 -10 -24 -21 -17 -19 -14 -22
right_child=2 -3 6 -5 -6 7 12 -9 9 -11 13 -13 28 -15 -16 16 -18 27 20 21 29 -23 24 -25 -26 -27 -28 -29 -30 -31
leaf_value=0.066789117967948036 -0.0058136605974248093 0.043904287813937244 -0.042201505665678041 -0.043039120729205294 0.073818935744999814 0.066958526616054809 -0.041458681729300756 0.068322939119597678 0.066001070049560046 0.066506478168680425 -0.041635537877797356 -0.042191103185192341 -0.040955591856979084 -0.041644113134745669 0.066291253479279 -0.041467505240033245 -0.042269249400312438 -0.041200989306150425 -0.041736991953408784 -0.04154379381712172 -0.041328256133573188 -0.041849135487055676 0.066068829555977093 0.065792095630984759 0.065846916662713195 -0.041774104519011167 -0.041799812754209499 -0.041010984952611629 -0.041125625728045866 -0.041071197083179495
leaf_weight=8.9995080232620221 7.7607412338256836 9.2181512713432294 6.9510765969753256 7.8162309825420362 8.1347107291221601 8.247196286916731 6.3777266144752494 7.4870081245899192 11.998360604047759 10.497102469205855 4.7835721373558071 5.7070106267929068 137.00087505578995 8.3620028048753721 7.4991607367992392 4.7291407287120801 5.9834049493074408 9.957968547940256 5.0586225390434292 115.35302330553532 4.6743566244840604 5.5848302245140067 12.748718202114103 113.97968590259552 22.121297657489791 6.03057637810707 5.0850032716989517 16.198509752750397 6.906716212630271 7.1066881865262985
leaf_count=24 28 25 28 30 22 22 27 20 32 28 20 23 603 35 20 20 24 43 21 485 20 23 34 304 59 25 21 71 30 31
internal_value=-0.00146666 0.065428 -0.0406241 -0.0244927 0.0663652 0.0660673 -0.0413185 0.0676078 0.0659383 0.0658955 -0.0415555 -0.0416207 -0.0409848 -0.0412698 0.0658574 -0.0416012 -0.0418781 -0.0411687 -0.0415722 -0.041601 -0.0413426 -0.0415682 0.0658372 0.065812 0.065928 -0.0415552 -0.0416397 -0.0410833 -0.0409638 -0.0411732
internal_weight=598.359 220.931 377.428 15.577 211.713 203.578 361.851 15.7342 187.844 178.844 211.566 172.264 150.285 39.3021 168.347 166.557 15.7975 30.9401 150.759 133.92 16.8397 126.968 160.848 125.978 34.87 121.384 9.81414 26.1565 143.908 11.781
internal_count=2198 590 1608 58 565 543 1550 42 501 477 890 721 660 169 449 698 65 134 633 561 72 533 429 336 93 510 41 114 633 51
is_linear=0
shrinkage=0.05


Tree=24
num_leaves=31
num_cat=0
split_feature=8 1 0 1 8 8 6 1 1 8 0 6 1 6 6 8 2 4 1 6 1 8 6 7 0 6 4 7 8 1
split_gain=401.587 108.625 14.0949 11.4735 9.62144 8.60571 7.32656 6.86207 5.81662 5.84427 3.29576 5.74443 2.671 4.44189 1.9734 1.56916 1.948 0.998391 0.60181 0.485114 0.393829 0.337795 0.399727 0.114618 0.101114 0.317814 0.0842048 0.0821992 0.0777953 0.0768089
threshold=0.22501162250116227 1.0083333333333335 0.4079150038494867 -0.058333333333333327 -0.68247326824732679 0.32543003254300334 1.6734413155587957 0.17500000000000002 0.59166666666666679 -0.10785681078568106 0.46127403381881632 -1.0000000180025095e-35 1.4416666666666669 -0.69766085462664573 -1.0000000180025095e-35 0.12831241283124131 0.51364365971107551 0.26332970620239399 -0.25833333333333325 0.99507711189693226 0.45833333333333343 -0.25104602510460244 -0.23195432038290284 -0.23085106382978721 0.30175234934109568 1.325146665349036 1.2121871599564746 -0.34361702127659571 0.34588563458856353 1.0083333333333335
decision_type=2 2 2 2 2 2 2 2 2 2 2 2 2 2 2 2 2 2 2 2 2 2 2 2 2 2 2 2 2 2
left_child=1 2 8 18 -3 7 12 10 15 17 -2 -12 13 -6 -5 24 -17 -10 -4 26 -9 22 -14 -23 -1 -26 27 -7 -29 -22
right_child=5 4 3 14 6 19 -8 20 9 -11 11 -13 21 -15 -16 16 -18 -19 -20 -21 29 23 -24 -25 25 -27 -28 28 -30 -31
leaf_value=-0.046010189642563683 -0.019880151703623353 -0.024756098023504588 -0.050199436247029189 0.0039362722307235845 -0.0024856199003675389 0.04691594930001871 -0.010146544294604541 0.037917247271100046 -0.02217458735236183 0.017733820488112822 -0.0073162166840870201 0.051452444935632648 0.037585435609457665 0.053589092647089331 0.0384631832965589 -0.0089717293071770576 -0.047109539484265134 -0.048796072546858901 -0.029658267430393723 0.041632041727301068 0.048293197340027981 0.052422251704277535 0.053796632444508753 0.060188766294413214 -0.047320121006212565 -0.033329831270526765 0.045997407514023418 0.047172275344371919 0.052002394492491534 0.055559740130217583
leaf_weight=287.58915653824806 7.1459350883960751 7.1033913493156424 7.8150978088378906 8.7940533161163348 7.1038151383399963 9.0181108415126783 7.2096424400806418 7.4796961545944241 6.3267969787120837 7.4117033779621115 8.7200511693954503 7.9481241703033421 7.8365229368209839 7.0231158733367902 7.8172565698623648 6.6059714257717115 6.7895097732543945 7.9440500736236572 6.5578238368034381 13.470486819744108 7.0656895637512189 12.838613063096995 7.3868929743766731 7.5406865775585272 10.831578224897386 6.4926539361476889 6.9601818025112143 8.7110231518745405 193.83434009552002 7.4932782649993896
leaf_count=962 20 20 24 25 20 26 21 21 20 21 24 22 22 20 22 20 22 25 20 38 20 37 21 21 35 21 20 25 562 21
internal_value=-2.87877e-05 -0.0300208 -0.0404019 -0.00811751 0.0301131 0.046929 0.0369582 0.0271357 -0.043344 -0.0182864 0.00852815 0.0207073 0.0437873 0.0253916 0.0201846 -0.0450509 -0.0283019 -0.0369938 -0.0408273 0.050841 0.0472424 0.0510866 0.0454516 0.055296 -0.0457867 -0.0420769 0.0514087 0.0515867 0.0517947 0.0520332
internal_weight=712.865 435.018 370.976 30.9842 64.0427 277.847 56.9393 45.8528 339.991 21.6826 23.8141 16.6682 49.7296 14.1269 16.6113 318.309 13.3955 14.2708 14.3729 231.994 22.0387 35.6027 15.2234 20.3793 304.913 17.3242 218.524 211.563 202.545 14.559
internal_count=2198 1399 1217 91 182 799 162 128 1126 66 66 46 141 40 47 1060 42 45 44 671 62 101 43 58 1018 56 633 613 587 41
is_linear=0
shrinkage=0.05


Tree=25
num_leaves=31
num_cat=0
split_feature=5 8 5 2 3 5 7 5 0 7 2 8 5 8 5 2 7 2 8 5 5 7 2 2 3 8 5 7 0 7
split_gain=527.075 25.0607 12.2325 9.46074 4.50872 2.41535 1.43128 0.49217 0.942886 0.444391 0.724835 0.165467 0.056898 0.0630908 0.0354838 0.0318769 0.0219895 0.0186482 0.0106207 0.0039878 0.00677964 0.0026197 0.00256437 0.0015549 0.00182342 0.000988052 0.000700665 0.000563924 0.00048374 0.000917255
threshold=1.358894458172953 0.25104602510460255 1.1743817951621749 -0.28250401284109145 0.043750000000002849 1.5422211061992206 -0.85851063829787222 0.98947322871679744 0.34717902754960267 0.43085106382978727 -0.32102728731942215 0.12831241283124131 2.0772801589898644 -0.040911204091120403 3.2662224623386469 -0.50080256821829849 -0.23085106382978721 0.55216693418940632 0.31613203161320319 -1.2149326416049164 -1.1023674384596742 -0.7563829787234041 -0.0064205457463884412 0.32744783306581066 -0.081249999999997144 0.18410041841004185 -0.98044874899776191 0.14361702127659579 -0.500414136174541 -0.47127659574468078
decision_type=2 2 2 2 2 2 2 2 2 2 2 2 2 2 2 2 2 2 2 2 2 2 2 2 2 2 2 2 2 2
left_child=2 5 6 -4 -3 -2 -1 18 -9 11 -11 12 15 14 17 -7 -17 23 19 25 22 -22 -21 28 -25 -8 -20 -23 -14 -30
right_child=1 4 3 -5 -6 9 7 8 -10 10 -12 -13 13 -15 -16 16 -18 -19 26 20 21 27 -24 24 -26 -27 -28 -29 29 -31
leaf_value=-0.019580515545659195 0.038862877556371987 -0.031678110854374365 0.045441286986499796 -0.03150924665478582 0.024766024714128868 0.062016032682813617 -0.041234954782966703 -0.0146056831885659 -0.041560172033598464 0.047708355196829359 0.064751680049541335 0.069758720694583332 0.061709138635941851 0.0574626733869852 0.065306376860448337 0.067459225887718896 0.064116070700784664 0.064264907669290328 -0.041165114607019368 -0.043354386385078263 -0.042446119707124551 -0.041124990407477524 -0.041867855565173001 0.061847213588451799 0.062816201740207328 -0.040467039423230128 -0.040732021555078601 -0.041611149453563694 0.062424562075532146 0.061816057493237556
leaf_weight=8.2263507544994336 12.046299159526823 8.1717587709426862 7.5104205608367947 8.5318496823310834 6.2392911911010733 10.064235001802446 126.14055827260017 5.183708354830741 8.6723065376281721 13.515507072210314 11.586233615875242 7.8296810686588278 72.652550578117371 7.4145373106002799 8.5950110256671888 8.1920437514781987 12.309271305799481 8.5509558618068677 10.113462433218954 7.3045331984758377 5.2247880399227133 25.036765962839127 4.8126111030578596 11.180578768253328 8.5813133120536786 4.3327109962701789 121.90930736064911 7.8304898440837851 7.4576348960399619 36.521123290061951
leaf_count=31 34 31 22 34 21 27 543 20 37 37 31 21 195 20 23 22 33 23 44 28 21 109 20 30 23 20 547 33 20 98
internal_value=0.00143927 0.0567734 -0.0381349 0.00451626 -0.00724052 0.0606742 -0.0401786 -0.0406975 -0.0314762 0.0618448 0.0555751 0.0626342 0.062343 0.0619674 0.062185 0.0643206 0.0654519 0.0619999 -0.0411061 -0.0413552 -0.0417338 -0.0414061 -0.042764 0.0618579 0.062268 -0.0412095 -0.0407652 -0.0412408 0.0617884 0.0619192
internal_weight=601.738 250.908 350.83 16.0423 14.411 236.497 334.788 326.561 13.856 224.451 25.1017 199.349 191.519 160.954 153.539 30.5656 20.5013 144.944 312.705 180.682 50.2092 38.092 12.1171 136.393 19.7619 130.473 132.023 32.8673 116.631 43.9788
internal_count=2198 689 1509 56 52 637 1453 1422 57 603 68 535 514 432 412 82 55 389 1365 774 211 163 48 366 53 563 591 142 313 118
is_linear=0
shrinkage=0.05


Tree=26
num_leaves=31
num_cat=0
split_feature=5 5 7 1 8 8 8 1 8 5 1 8 5 5 5 1 8 8 8 1 8 1 8 1 2 5 8 4 4 1
split_gain=570.383 1.72471 2.1215 1.66418 0.142 0.011052 0.00972002 0.0029511 0.00291935 0.0012112 0.000775268 0.000643605 0.000630972 0.000532458 0.000454612 0.000652459 0.000678069 0.000505311 0.000449248 0.000298782 0.000241733 0.00018459 0.000156636 0.000197677 0.000164558 0.000130706 0.000123709 0.000113039 8.26844e-05 5.12254e-05
threshold=-1.2149326416049164 -1.1023674384596742 -0.075531914893617005 1.0250000000000001 0.19525801952580199 0.32543003254300334 0.11715481171548119 0.49166666666666675 -1.1046025104602508 0.98947322871679744 1.1750000000000003 0.061366806136680621 3.2662224623386469 -0.98044874899776191 1.7235767063893102 0.025000000000000005 0.19525801952580199 0.22501162250116227 0.14132961413296144 0.25833333333333336 -0.46304044630404456 0.69166666666666676 -1.0488145048814503 -0.1583333333333333 -0.0064205457463884412 1.358894458172953 0.12831241283124131 0.56365614798694252 -0.45484221980413481 0.75833333333333341
decision_type=2 2 2 2 2 2 2 2 2 2 2 2 2 2 2 2 2 2 2 2 2 2 2 2 2 2 2 2 2 2
left_child=3 2 -2 4 6 9 7 8 -1 10 18 22 14 -7 15 17 27 -11 -3 -20 -12 26 -10 -24 -25 -15 -16 -17 -26 -29
right_child=1 5 -4 -5 -6 13 -8 -9 11 12 20 -13 -14 25 21 16 -18 -19 19 -21 -22 -23 23 24 28 -27 -28 29 -30 -31
leaf_value=0.0633872137755946 -0.0050354542131956087 -0.041455737322150125 -0.042420254712892624 0.041276861457706135 0.069354523429142334 -0.040912544544730513 0.064046417559017341 0.063371692527214418 0.062614766022453916 -0.041235879058712385 -0.040899705808808133 0.06289392849674591 -0.041615577068336337 -0.04042439689135674 -0.040997095778903869 -0.041112609314802873 -0.040695224282597031 -0.041933101233912431 -0.041182634323142168 -0.040659029841049084 -0.040505645622057301 -0.041275887586904342 0.062394085975069694 0.062657865206988073 0.062549557531403635 -0.040651884118062954 -0.041199608870928814 -0.041264199497562354 0.062357735367471093 -0.041497886776364817
leaf_weight=8.9750587046146375 7.6530729383230209 4.7017249315977088 7.5273217111825925 9.288765221834181 8.1939110755920392 6.106025665998458 11.593646287918089 10.466219097375868 11.949082314968107 5.5719069689512235 4.9718336611986151 8.2186338007450086 5.4828892499208441 130.82198221981525 109.65097999572754 6.6605168581008973 7.5394982993602744 4.8700788617134094 4.6197036951780301 6.6411915868520737 17.915577948093418 6.9673509001731864 114.2116953730583 14.564817041158674 10.080847531557081 6.634455978870391 8.0980248600244504 4.6533158868551237 12.689115464687363 4.7275365442037582
leaf_count=24 28 20 30 25 22 27 31 28 32 24 22 22 23 603 481 29 34 20 20 30 82 30 306 39 27 30 35 20 34 20
internal_value=-0.0014527 -0.040069 -0.023573 0.0619894 0.0629015 -0.0407915 0.0626407 0.0625554 0.0625081 -0.0410288 -0.0407778 0.0624622 -0.0410882 -0.0404557 -0.04107 -0.041232 -0.0410863 -0.0415611 -0.0410452 -0.0408738 -0.0405912 -0.0410258 0.0624405 0.0624267 0.0625266 -0.0404354 -0.041011 -0.0412701 0.0624427 -0.041382
internal_weight=582.047 361.815 15.1804 220.232 210.943 346.635 202.749 191.155 180.689 203.072 38.85 171.714 164.222 143.562 158.739 34.0229 23.5809 10.442 15.9626 11.2609 22.8874 124.716 163.496 151.546 37.3348 137.456 117.749 16.0414 22.77 9.38085
internal_count=2198 1608 58 590 565 1550 543 512 484 890 174 460 716 660 693 147 103 44 70 50 104 546 438 406 100 633 516 69 61 40
is_linear=0
shrinkage=0.05


Tree=27
num_leaves=31
num_cat=0
split_feature=8 5 5 5 4 8 5 5 2 5 2 2 7 7 5 5 4 5 4 5 3 5 2 7 7 5 8 7 2 2
split_gain=366.061 26.4776 130.483 17.2707 10.7235 8.17299 5.12254 4.54014 2.04182 1.9707 0.850267 0.878518 0.617738 1.10342 0.483721 0.437127 0.380585 0.10721 0.0770391 0.0308262 0.0150536 0.0131198 0.0115237 0.00954882 0.0075559 0.00580287 0.00352652 0.00473366 0.00311611 0.00248413
threshold=0.22501162250116227 1.5422211061992206 -1.2149326416049164 0.98947322871679744 0.5549510337323178 0.32543003254300334 1.1743817951621749 -1.1023674384596742 -0.14767255216693417 -1.3176623369522955 -0.24398073836276082 -0.31460674157303364 0.43085106382978727 0.52872340425531927 -0.98044874899776191 1.358894458172953 0.019586507072905379 -1.1023674384596742 -0.57236126224156669 2.0772801589898644 0.093750000000007119 -1.4918995878383836 -0.50080256821829849 -0.70319148936170206 -0.4053191489361701 1.1743817951621749 0.09483960948396096 -0.23085106382978721 0.051364365971107558 -0.44943820224719094
decision_type=2 2 2 2 2 2 2 2 2 2 2 2 2 2 2 2 2 2 2 2 2 2 2 2 2 2 2 2 2 2
left_child=1 2 9 10 -5 6 7 -2 -8 21 11 -4 18 -14 -7 25 -11 -12 -3 22 -9 -1 -20 -19 -23 29 27 -24 -25 -16
right_child=5 12 3 4 -6 14 8 20 -10 16 17 -13 13 -15 15 -17 -18 23 19 -21 -22 24 26 28 -26 -27 -28 -29 -30 -31
leaf_value=-0.04493041441853745 0.011307623323717448 -0.039593215779371554 0.051978339341528956 0.0370129979108191 -0.033371129498460585 0.039916790869689606 -0.016665938906102715 0.051214323876934066 0.019624638545898826 -0.033078122376367439 0.058267870636978608 0.030569165224402867 -0.023244553544582814 -0.046656013297943333 0.051110534745285575 0.039859172748282205 -0.016147375291042484 0.053407995901630256 -0.04513702388716196 -0.044984127077090701 0.054042610178692767 -0.047322015268101508 -0.047905619839918138 0.050633122894570372 -0.045609168678684746 0.051596705536950532 -0.048302487647089977 -0.046114198550695387 0.051880436325862436 0.050200912741039543
leaf_weight=120.0017326772213 10.306820809841154 6.0628920197486869 8.9289804100990313 9.4968739449977893 12.580247879028319 13.218959867954252 7.2673885822296134 11.232493609189993 8.3053088188171369 7.0757060647010785 8.7229093015193921 10.341394722461699 9.3618812859058398 10.884469479322432 7.8212466537952414 10.563795179128645 6.2521725296974182 7.9971803724765769 7.8010303080081966 119.10316693782806 8.0955007970333082 8.6130988895893079 6.8411705493927037 8.4221890270710045 25.502468913793564 8.1854658722877485 6.984169512987136 7.9995610415935499 12.349402278661726 186.04608005285263
leaf_count=418 29 20 26 26 36 38 20 33 23 23 24 29 30 36 23 30 20 23 27 414 23 28 22 25 87 24 22 27 36 556
internal_value=-1.5422e-05 -0.0291756 -0.0186087 0.0344302 -0.00309412 0.0453127 0.0259068 0.0381076 0.00268873 -0.0435813 0.0490249 0.0404892 -0.0440437 -0.0358306 0.0491973 0.0497743 -0.0251358 0.0534122 -0.0451179 -0.0453431 0.0523989 -0.0451764 -0.0467864 0.0519399 -0.0460416 0.0502927 -0.047376 -0.04694 0.0513747 0.0502376
internal_weight=692.366 421.323 246.284 78.8392 22.0771 271.043 45.2075 29.6348 15.5727 167.445 56.7621 19.2704 175.038 20.2464 225.836 212.617 13.3279 37.4917 154.792 148.729 19.328 154.117 29.6259 28.7688 34.1156 202.053 21.8249 14.8407 20.7716 193.867
internal_count=2198 1399 801 225 62 799 128 85 43 576 163 55 598 66 671 633 43 108 532 512 56 533 98 84 115 603 71 49 61 579
is_linear=0
shrinkage=0.05


Tree=28
num_leaves=31
num_cat=0
split_feature=5 8 5 4 1 4 7 5 5 7 8 1 5 4 8 8 6 1 4 1 8 7 8 1 5 5 7 8 1 0
split_gain=480.975 22.1788 11.7889 8.81996 5.23756 3.63069 1.41952 1.24104 0.493064 0.94781 0.205865 0.101216 0.0279157 0.0118815 0.0106383 0.00859657 0.0047214 0.0107519 0.00364901 0.00280894 0.00251051 0.00126827 0.000902306 0.000796019 0.000854237 0.000766185 0.000600244 0.000460198 0.000264347 0.000257793
threshold=1.358894458172953 0.25104602510460255 1.1743817951621749 0.19368879216539722 1.2416666666666669 -0.43307943416757338 -0.85851063829787222 1.5422211061992206 0.98947322871679744 0.45425531914893619 0.12831241283124131 0.65833333333333344 3.2662224623386469 -0.067464635473340515 0.31613203161320319 0.068805206880520706 1.6734413155587957 0.17500000000000002 -0.4853101196953209 1.3750000000000002 0.098558809855881002 0.43085106382978727 0.18410041841004185 -0.20833333333333331 2.413952851835496 -0.98044874899776191 -0.74787234042553175 0.2194328219432822 -0.024999999999999998 -0.78351410796335863
decision_type=2 2 2 2 2 2 2 2 2 2 2 2 2 2 2 2 2 2 2 2 2 2 2 2 2 2 2 2 2 2
left_child=2 4 6 -4 7 -3 -1 -2 14 -10 11 12 15 -12 16 18 17 -8 -9 20 -19 23 29 -20 -25 -16 -21 -22 -27 -18
right_child=1 5 3 -5 -6 -7 8 10 9 -11 13 -13 -14 -15 25 -17 22 19 21 26 27 -23 -24 24 -26 28 -28 -29 -30 -31
leaf_value=-0.018948726118345572 0.041745363985320305 -0.035395757809683751 -0.041669272190066914 0.034593214099202033 0.015738005526152659 0.015612140869054374 -0.042767023881735283 0.060064502114045182 -0.01374609672759879 -0.041143792723054989 0.064073758294335065 0.064112577950602601 0.062009067982230263 0.066860843346120538 -0.040672685317873915 0.060568755309946536 -0.041062147959017262 -0.04203634886798497 0.058849989364863513 -0.040992643505004256 -0.041214715075119548 0.059513852745481169 -0.039959960054834071 0.05897479617261913 0.059480444046241511 -0.040386676278058135 -0.04035321721655203 -0.040542686440258276 -0.040177905047865753 -0.040696834679741653
leaf_weight=8.0803303867578489 9.8281461000442487 6.1713211089372626 6.2616627663373938 9.6096757948398572 7.1754524409770957 8.0252876430749875 9.6013297736644727 7.7776337265968314 5.0701833367347708 8.3643354177474958 7.4672075808048248 11.171698421239851 8.5471571683883649 7.8375503420829755 9.6977659761905652 9.2718217670917493 5.0394214838743201 7.7152588814497021 110.88353267312048 4.76876576244831 4.6128303408622724 9.6083867549896222 4.1238722354173651 33.910702615976348 11.082310706377028 17.926576599478722 15.931524723768236 5.6895979791879654 98.340612545609474 115.79293708503246
leaf_count=31 27 24 27 29 21 28 38 21 20 37 20 30 23 21 44 25 22 32 301 21 20 26 20 92 30 83 74 26 464 521
internal_value=0.00140198 0.0541245 -0.0375586 0.00450565 0.0577974 -0.00656119 -0.0396399 0.0591247 -0.0401747 -0.0308039 0.0599098 0.0594867 0.0592162 0.065501 -0.0405954 0.0590855 -0.0408495 -0.0412693 0.0590061 -0.0408978 -0.0413543 0.0589563 -0.0406872 0.058922 0.0590993 -0.0402457 -0.0405005 -0.0408436 -0.0402101 -0.0407121
internal_weight=585.385 248.758 336.627 15.8713 234.562 14.1966 320.755 227.386 312.675 13.4345 217.558 202.253 191.082 15.3048 299.24 182.534 173.276 48.3193 173.263 38.718 18.0177 165.485 124.956 155.877 44.993 125.965 20.7003 10.3024 116.267 120.832
internal_count=2198 689 1509 56 637 52 1453 616 1422 57 589 548 518 41 1365 495 774 211 470 173 78 449 563 423 122 591 95 46 547 543
is_linear=0
shrinkage=0.05


Tree=29
num_leaves=31
num_cat=0
split_feature=5 5 7 0 4 5 7 8 3 7 5 4 5 5 7 5 5 3 8 5 7 3 8 4 3 5 4 5 8 8
split_gain=521.492 1.71688 2.07656 1.29056 0.0545999 0.0649944 0.0475852 0.0111229 0.0109096 0.00541701 0.003692 0.00254339 0.000807241 0.000715536 0.000680794 0.00062188 0.000581444 0.000540482 0.000461554 0.000564722 0.00040617 0.000594047 0.000517757 0.000345659 0.000283148 0.000217481 9.3432e-05 9.00822e-05 8.28326e-05 4.87176e-05
threshold=-1.2149326416049164 -1.1023674384596742 -0.075531914893617005 0.41640810479869578 2.4766050054406965 -1.4101166201749844 -0.4159574468085106 0.32543003254300334 -0.30624999999999852 -0.85638297872340419 -1.4918995878383836 -0.11969532100108811 0.98947322871679744 1.7235767063893102 -0.8180851063829786 3.2662224623386469 -0.98044874899776191 -0.25625000000000137 -0.50116225011622495 -0.41023334387558413 0.52872340425531927 0.50625000000000153 0.19525801952580199 0.16322089227421113 1.0000000180025095e-35 1.358894458172953 0.82480957562568025 1.358894458172953 0.15248721524872155 -0.05392840539284053
decision_type=2 2 2 2 2 2 2 2 2 2 2 2 2 2 2 2 2 2 2 2 2 2 2 2 2 2 2 2 2 2
left_child=3 2 -2 4 5 9 -7 12 -8 -1 14 -12 18 20 17 28 -9 -11 -3 23 22 -22 25 24 -20 -14 -27 -18 -15 -16
right_child=1 7 -4 -5 -6 6 8 16 -10 10 11 -13 13 15 29 -17 27 -19 19 -21 21 -23 -24 -25 -26 26 -28 -29 -30 -31
